item,embedding
aardvark,0.023445015773177147 0.2249102145433426 2.6347568035125732 0.003634943161159754 0.02381383813917637 0.05614947900176048 0.036792948842048645 0.0494551807641983 0.03729059174656868 0.12151417136192322 0.008834266103804111 0.015836991369724274 0.003882922697812319 0.018179876729846 0.023652857169508934 0.0022325851023197174 0.010953288525342941 0.00961840059608221 0.034291837364435196 0.023352257907390594 0.024764392524957657 0.02706923708319664 0.009666812606155872 0.0208231583237648 0.008167757652699947 0.03612837940454483 0.005156791768968105 0.03209410235285759 0.0011917023221030831 0.04364864155650139 0.0018714861944317818 0.02768452651798725 0.01246943511068821 0.011947203427553177 0.04628394916653633 0.005597114097326994 0.06984852254390717 0.011357685551047325 0.0066755786538124084 0.020235398784279823 0.010759251192212105 0.036681946367025375 0.06418024003505707 0.017426349222660065 0.005557924974709749 0.032281842082738876 0.03638622537255287 0.04316713660955429 0.008170472458004951
abacus,1.2162628173828125 0.2120264619588852 0.030790144577622414 0.08618022501468658 0.07812363654375076 0.0915311872959137 0.03306620568037033 0.012192469090223312 0.9489875435829163 0.033112041652202606 0.27035561203956604 0.9043695330619812 0.6131617426872253 0.5173910856246948 0.27518245577812195 0.116722971200943 0.9273203015327454 0.794983446598053 0.04090443626046181 0.19272460043430328 0.03843534737825394 0.018064582720398903 0.0029988978058099747 0.015390081331133842 0.007530285511165857 0.10894066840410233 0.023998182266950607 0.18512138724327087 0.030812660232186317 0.3133680820465088 0.03483020141720772 0.16568619012832642 0.010947399772703648 0.04983193799853325 0.00627289479598403 0.05639911815524101 0.010553550906479359 0.26760727167129517 0.04688809812068939 0.02765638567507267 0.006004735361784697 0.93034428358078 0.023533528670668602 0.011657608672976494 0.05376448482275009 0.019489537924528122 0.4337385594844818 0.0074750264175236225 0.07840244472026825
accordion,0.9413446187973022 0.04399370029568672 0.02270893193781376 0.07529302686452866 0.2948566973209381 0.002651806455105543 0.005566238425672054 0.17189881205558777 0.03250106796622276 0.3049398362636566 0.05386130139231682 0.5347974896430969 1.0144709348678589 0.39000919461250305 0.0744088813662529 0.043334800750017166 0.38867101073265076 0.4508511424064636 0.010931234806776047 0.2951969802379608 0.004005151800811291 0.032891031354665756 0.08130206912755966 0.03255380690097809 0.01872994564473629 0.1309332400560379 0.33780255913734436 1.6077098846435547 0.028544532135128975 0.005847120191901922 0.581580400466919 0.458625853061676 0.128198504447937 0.01745004393160343 0.020355897024273872 0.010701093822717667 0.023891055956482887 0.010079723782837391 0.026908012107014656 0.0017277698498219252 0.06004584580659866 0.13356615602970123 0.38367924094200134 0.022445570677518845 0.026673220098018646 0.015072391368448734 0.0214578565210104 0.005046166013926268 0.05808204784989357
acorn,0.24573032557964325 1.0902433395385742 0.7904656529426575 0.037349313497543335 0.018132172524929047 0.889878511428833 0.21473237872123718 0.026395753026008606 1.140915036201477 0.05654814466834068 0.007856939919292927 0.44539907574653625 0.07594649493694305 0.048579953610897064 0.2550623416900635 0.05729236826300621 0.010134241543710232 0.01283340435475111 0.14294345676898956 0.04423066973686218 0.01883460208773613 0.8144966959953308 0.03767945244908333 0.28085437417030334 0.012552489526569843 0.12239979952573776 0.11000481992959976 0.00510857068002224 0.012858212925493717 1.0279350280761719 0.03697740286588669 0.06879489868879318 0.010652062483131886 0.017142709344625473 0.01885460875928402 0.1418340653181076 0.0526462122797966 0.022524023428559303 0.018030405044555664 0.02930179052054882 0.2825849950313568 0.02997325360774994 0.010882748290896416 0.011880842968821526 0.01377015095204115 0.014994475990533829 0.05021413043141365 0.050764329731464386 0.0022380154114216566
air conditioner,0.8160485625267029 0.045588210225105286 0.010805556550621986 0.21346178650856018 1.4072026014328003 0.004317118786275387 0.41920188069343567 0.09706004709005356 0.024306103587150574 0.06850813329219818 0.14737176895141602 0.013289855793118477 1.5220123529434204 0.05437744781374931 0.006566216703504324 0.03180313482880592 0.041756901890039444 0.0240155141800642 0.05282823368906975 0.02673388086259365 0.16659846901893616 0.026886576786637306 0.3533753752708435 0.009675472043454647 0.5706644654273987 0.0005696478765457869 0.013378109782934189 0.021235322579741478 0.07667665183544159 0.009881961159408092 0.08734606206417084 0.05607076734304428 0.0926731675863266 0.055689696222543716 0.030689479783177376 0.005936339497566223 0.007974413223564625 0.05238249897956848 0.37265121936798096 0.09765539318323135 0.07927808165550232 0.05171217769384384 0.3098624646663666 0.014482177793979645 0.0828670784831047 0.07996360212564468 0.8710013628005981 0.00019682387937791646 0.07867249101400375
air mattress,0.504734218120575 0.1982993185520172 0.052878640592098236 0.6317686438560486 1.6198307275772095 0.08241152763366699 0.04030824080109596 0.3864734172821045 0.369167685508728 0.05067740008234978 0.22453013062477112 0.05620794743299484 0.11134152114391327 0.5708537101745605 0.055374231189489365 0.02706017717719078 0.08271239697933197 0.024971937760710716 0.04384448006749153 0.044644758105278015 0.24652136862277985 0.10888615250587463 0.29888716340065 0.12244366109371185 0.10386902838945389 0.27226611971855164 0.01475331000983715 0.26139095425605774 0.018620910122990608 0.08541830629110336 0.4738728702068329 0.11671934276819229 0.04755820333957672 0.02017151191830635 0.0813068076968193 0.08017713576555252 0.25831061601638794 0.010092378593981266 0.4890251159667969 0.1185510903596878 0.05229450389742851 0.005624777637422085 0.012646432034671307 0.02701694704592228 0.08403532952070236 0.33205538988113403 0.1036124974489212 0.030355172231793404 0.06319461762905121
air pump,1.2853449583053589 0.016339007765054703 0.01184908114373684 0.06683948636054993 0.11366429179906845 0.03976656496524811 0.7444310188293457 0.6829466819763184 0.07380213588476181 0.00893903523683548 0.05489429831504822 0.06570470333099365 0.2439289391040802 0.9058064222335815 0.028497619554400444 0.9234561324119568 0.03268659487366676 0.10351359844207764 0.2871892750263214 0.5686197280883789 0.04142376780509949 0.0027089049108326435 0.8223448991775513 0.0358930267393589 0.0898987203836441 0.043778661638498306 0.00950950849801302 0.09052835404872894 0.05431343615055084 0.0702618807554245 0.02281256392598152 0.019112704321742058 0.021823979914188385 0.03695797547698021 0.021258113905787468 0.11555052548646927 0.0385548435151577 0.0438317209482193 0.032299816608428955 0.09394637495279312 0.019533874467015266 0.006524242926388979 0.0270695798099041 0.04704434797167778 0.005330373533070087 0.01599319651722908 0.03345753625035286 0.06544690579175949 0.0379626527428627
airbag,0.7862145900726318 0.0239450354129076 0.033152732998132706 0.5608270764350891 0.6070959568023682 0.014701473526656628 0.11332853883504868 1.4621378183364868 0.017732447013258934 0.19077685475349426 0.038162149488925934 0.047640491276979446 0.25820261240005493 0.29351451992988586 0.3025095760822296 0.04695591703057289 0.0113114258274436 0.023493381217122078 0.03234093636274338 0.003089525969699025 0.04538412392139435 0.057998862117528915 0.042937569320201874 0.0529823936522007 0.25883305072784424 0.18487901985645294 0.6485656499862671 0.05746321380138397 0.02683860994875431 0.1345406174659729 0.013365066610276699 0.0326632559299469 0.47773492336273193 1.0414115190505981 0.006991120055317879 0.06318863481283188 0.04968959838151932 0.052638981491327286 0.8018679618835449 0.18112023174762726 0.05646688491106033 0.006555266212671995 0.04292186349630356 0.021133465692400932 0.08076158165931702 0.16436630487442017 0.04650692641735077 0.0829453319311142 0.0889066830277443
airboat,1.0881694555282593 -0.0004622245323844254 0.38459980487823486 0.15192022919654846 0.08395954221487045 0.3511243760585785 0.9536765217781067 1.5115045309066772 0.07780922204256058 0.08314209431409836 0.03218755125999451 0.06423436105251312 0.3286057412624359 0.2514991760253906 0.323356032371521 0.02291260100901127 0.07289203256368637 0.03823442757129669 0.08547280728816986 0.01034238189458847 0.6474948525428772 0.05016503110527992 0.01812986470758915 0.0432940348982811 0.017681825906038284 0.05359497666358948 0.10277680307626724 0.020600533112883568 0.2148132622241974 0.013738654553890228 0.21086862683296204 0.08152361959218979 0.050544507801532745 0.05607382580637932 0.011685739271342754 0.05522583797574043 0.09127641469240189 0.03443119674921036 0.2955220937728882 0.034243326634168625 0.07631450146436691 0.13153523206710815 0.9453364610671997 0.064789317548275 0.08981805294752121 0.041306301951408386 0.12621738016605377 0.09252611547708511 0.030559832230210304
aircraft carrier,1.0519824028015137 0.010558564215898514 0.031502630561590195 0.017057480290532112 0.257686585187912 0.01613180711865425 0.42955127358436584 1.5427759885787964 0.016537154093384743 0.006629635114222765 0.04074190557003021 0.021687477827072144 0.38698554039001465 0.060056984424591064 0.007526288274675608 0.01130920834839344 0.03891482576727867 0.25563833117485046 0.043837279081344604 0.013671653345227242 1.4272984266281128 0.04693668335676193 0.014235977083444595 0.03871865198016167 0.033388420939445496 0.0054067401215434074 0.40005508065223694 0.01397023256868124 0.3105672001838684 0.030372003093361855 0.03644094988703728 0.17410808801651 0.026900017634034157 0.017397256568074226 0.035958558320999146 0.01943056471645832 0.026679564267396927 0.04601118713617325 0.02808077074587345 0.06109943985939026 0.031448133289813995 0.09754086285829544 0.03637775778770447 0.03889709711074829 0.034197334200143814 0.004877935163676739 0.04011809453368187 0.021030467003583908 0.039613883942365646
airplane,0.8462479114532471 0.008379627019166946 0.16674546897411346 0.047247085720300674 0.013734283857047558 0.005716976244002581 0.022976556792855263 1.885337471961975 0.033497124910354614 0.05745723843574524 0.0724833756685257 0.05402969941496849 0.3862016797065735 0.6725549101829529 0.006000728812068701 0.006932536140084267 0.04405926167964935 0.041184231638908386 0.0011873827315866947 0.07416562736034393 0.2364051789045334 0.03418455645442009 0.00800464116036892 0.02392442338168621 0.014379546977579594 0.010393002070486546 0.27877265214920044 0.24114638566970825 1.702551007270813 0.0029426426626741886 0.0031133983284235 0.013735566288232803 0.07472057640552521 0.20488791167736053 0.3196019232273102 0.005866735242307186 0.02350149117410183 0.26943135261535645 0.02067900076508522 0.048823341727256775 0.09742150455713272 0.03159264475107193 0.018372131511569023 0.07424163818359375 0.05488041788339615 0.025285840034484863 0.0013921161880716681 0.023653222247958183 0.02341335453093052
album,0.415971964597702 0.15526799857616425 0.12226687371730804 0.18974509835243225 0.7050549983978271 0.8435415625572205 0.14999905228614807 0.06729478389024734 0.12921090424060822 0.07115039229393005 0.7053323984146118 0.329580694437027 0.4729655385017395 0.09352026879787445 0.04282514005899429 0.011204161681234837 0.4849489629268646 1.5800319910049438 0.05234508961439133 0.029134999960660934 0.08625112473964691 0.003127171890810132 0.07166866958141327 0.46337446570396423 0.021732984110713005 0.004041563719511032 0.035402752459049225 0.0653882622718811 0.02450620010495186 0.06916186213493347 0.030768482014536858 0.07338115572929382 0.18837511539459229 0.040687356144189835 0.3212103843688965 0.028861593455076218 0.007510805502533913 0.0982196182012558 0.01168117206543684 0.07318628579378128 0.016598312184214592 0.05456743761897087 0.015596677549183369 0.015250998549163342 0.42237168550491333 0.003776701632887125 0.04539789631962776 0.9024083018302917 0.018069883808493614
alligator,0.04145978018641472 0.036031559109687805 2.0119340419769287 0.007368504069745541 0.022362174466252327 0.1594642996788025 0.3006023168563843 0.13243742287158966 0.02921110950410366 0.06473848968744278 0.012940836139023304 0.01909167319536209 0.009206193499267101 0.07417140901088715 0.016659026965498924 0.1615661233663559 0.06414023786783218 0.002998648677021265 0.028552638366818428 0.005185369402170181 0.9593443274497986 0.5625649094581604 0.045360494405031204 0.02456694468855858 0.00018056086264550686 0.020365439355373383 0.24034568667411804 0.018644098192453384 0.00499185174703598 0.015882432460784912 0.015646858140826225 0.02014494501054287 0.006506773643195629 0.015215098857879639 0.47475504875183105 0.011070461943745613 0.1659015417098999 0.011269218288362026 0.016749970614910126 0.01746598817408085 0.01899152807891369 0.022949615493416786 0.0191486869007349 0.007753664627671242 0.014839325100183487 0.011176030151546001 0.038884010165929794 0.019775515422225 0.03916603699326515
almond,0.02066473476588726 1.8492802381515503 0.2788732647895813 0.046043284237384796 0.031167756766080856 0.8793556094169617 0.04999502748250961 0.006128278095275164 0.6042069792747498 0.038119424134492874 0.02609848976135254 0.01283243577927351 0.0016251369379460812 0.07050565630197525 0.08518384397029877 0.036526016891002655 0.9584144353866577 0.010769317857921124 0.10295942425727844 0.0074388994835317135 0.013659154996275902 0.3684888184070587 0.09107782691717148 0.035474054515361786 0.012391135096549988 0.0029158885590732098 0.021799476817250252 0.015436354093253613 0.04336909204721451 0.09687642008066177 0.03272058069705963 0.013087361119687557 0.05762958154082298 0.02647772803902626 0.18209795653820038 0.03352097049355507 0.02368014119565487 0.03818875178694725 0.03162228316068649 0.00460831169039011 0.0009156017331406474 0.06914780288934708 0.01658800058066845 0.015250200405716896 0.057758037000894547 0.00975892599672079 0.0011647712672129273 0.04654135927557945 0.008241902105510235
aloe,0.03632471337914467 0.6510224938392639 0.689092755317688 0.11696845293045044 0.16412954032421112 2.385769844055176 0.5099676251411438 0.04992295429110527 0.1539221853017807 0.2313212901353836 0.045202188193798065 0.2901788055896759 0.007468851283192635 0.12173259258270264 0.12380877137184143 0.1611737608909607 0.05497695505619049 0.011975345201790333 0.17229364812374115 0.1656399518251419 0.17901693284511566 0.21509647369384766 0.038519468158483505 0.13571560382843018 0.36353424191474915 0.01467092800885439 0.2765411138534546 0.06305988878011703 0.03910534456372261 0.037612441927194595 0.5068724751472473 0.03137926757335663 0.018331453204154968 0.026880741119384766 0.2522737681865692 0.052506886422634125 0.22026431560516357 0.024048030376434326 0.019351433962583542 0.05502409487962723 0.13513830304145813 0.014072198420763016 0.017121512442827225 0.024785922840237617 0.04619105905294418 0.012497097253799438 0.046865008771419525 0.07688018679618835 0.020663555711507797
alpaca,0.04721264913678169 0.22347962856292725 2.592363119125366 0.43989840149879456 0.017609430477023125 0.29775574803352356 0.153161883354187 0.4516676366329193 0.060658011585474014 0.04885247349739075 0.0022580306977033615 0.043520379811525345 0.013202022761106491 0.10543506592512131 0.01045021042227745 0.04203430563211441 0.07181241363286972 0.00406472384929657 0.017842896282672882 0.00742765050381422 0.023324809968471527 0.05158669129014015 0.0029033857863396406 0.020789634436368942 0.041709985584020615 0.018377505242824554 0.07227575778961182 0.010609111748635769 0.013681488111615181 0.0029931627213954926 0.05737977847456932 0.02575763873755932 0.04616832360625267 0.023196933791041374 0.02677040360867977 0.05639713630080223 0.03163227066397667 0.011232578195631504 0.06091683730483055 0.01069105789065361 0.012065613642334938 0.05617287755012512 0.04929423704743385 0.02490956149995327 0.013186498545110226 0.008080637082457542 0.04658157005906105 0.038555897772312164 0.0028719333931803703
altar,0.579648494720459 0.16208022832870483 0.017593849450349808 0.05916985124349594 1.0840847492218018 0.2848474085330963 0.30925434827804565 0.13767457008361816 0.7778608798980713 0.04994555562734604 0.20024046301841736 1.113832950592041 0.050962407141923904 0.04325323924422264 0.05993150919675827 0.009010560810565948 0.023873118683695793 0.5560467839241028 0.10556381195783615 0.18985232710838318 0.022008955478668213 0.0076424130238592625 0.15029172599315643 0.34406059980392456 0.03424651920795441 0.08132444322109222 0.1608215570449829 0.5171371698379517 0.020072655752301216 0.019284358248114586 0.023646194487810135 0.04729965329170227 0.04497911036014557 0.08435746282339096 0.017672445625066757 0.020528141409158707 0.022287841886281967 0.031873416155576706 0.07655131071805954 0.24602876603603363 0.0401390977203846 0.44606155157089233 0.048049136996269226 0.06719793379306793 0.049257222563028336 0.03543085977435112 0.04108994081616402 0.2412039041519165 0.07092990726232529
aluminum foil,1.4711079597473145 1.0173296928405762 0.014987008646130562 0.3493950366973877 0.0743379220366478 0.032394737005233765 0.02820662222802639 0.04459882155060768 0.03436678275465965 0.01032724417746067 0.1678605079650879 0.02927909418940544 0.16856500506401062 0.010747539810836315 0.0715087279677391 0.1812894195318222 0.10639244318008423 0.36616504192352295 0.0721469521522522 0.25537949800491333 0.01716148853302002 0.04492533579468727 0.053561899811029434 0.02558506466448307 0.034752048552036285 0.015272929333150387 0.03309380263090134 0.030301647260785103 0.08208976686000824 0.04217693582177162 0.016001438722014427 1.1377867460250854 0.34074702858924866 1.534332036972046 0.020489104092121124 0.047689471393823624 0.01923183910548687 0.24030102789402008 0.03789086639881134 0.1259143054485321 0.02867591753602028 0.009753159247338772 0.027971727773547173 0.04776793345808983 0.023634517565369606 0.023510858416557312 0.15234844386577606 0.04779265075922012 0.011230324395000935
amber,0.500757098197937 0.4601745009422302 0.37400415539741516 0.02105245552957058 0.011281461454927921 0.39640748500823975 0.3739118278026581 0.0059067849069833755 0.1692379266023636 0.012271268293261528 0.10593461245298386 0.9082514047622681 0.0037111244164407253 0.02220202423632145 0.01568036898970604 0.18888966739177704 0.1611422300338745 0.01376565732061863 0.21688880026340485 0.07247672975063324 0.1158081665635109 0.7300006747245789 0.17097920179367065 0.010831444524228573 0.10440034419298172 0.010372616350650787 0.2612293064594269 0.1213122084736824 0.007225708570331335 0.5624468922615051 0.0057243481278419495 0.005660049617290497 0.016304466873407364 0.06794333457946777 1.0047576427459717 0.09674840420484543 0.16413918137550354 1.5955003499984741 0.0077006327919662 0.31672269105911255 0.013800140470266342 0.023039158433675766 0.028626473620533943 0.0013765337644144893 0.021727116778492928 0.010834941640496254 0.0004677465185523033 0.0193454772233963 0.7201364636421204
ambulance,0.7931050062179565 0.013973327353596687 0.10952577739953995 0.10309479385614395 0.2402646690607071 0.045620471239089966 0.3942835032939911 1.969444990158081 0.04335625469684601 0.16627436876296997 0.1685013324022293 0.11582644283771515 0.3181319236755371 0.023799706250429153 0.09741692990064621 0.048261020332574844 0.05979135259985924 0.32281026244163513 0.01834997534751892 0.1114993616938591 0.00789113063365221 0.014954735524952412 0.7851366996765137 0.005061592906713486 0.09041136503219604 0.015249533578753471 0.2256302833557129 0.02568008005619049 0.053387437015771866 0.011231431737542152 0.05861012637615204 0.07386454194784164 0.01595979928970337 0.04787660762667656 0.031429700553417206 0.10970938205718994 0.012171001173555851 0.02020738273859024 0.029043585062026978 0.3565802276134491 0.009123123250901699 0.021865658462047577 0.049307674169540405 0.03173326700925827 0.053600676357746124 0.19908009469509125 0.05525916814804077 0.009672753512859344 0.007465584669262171
amplifier,1.2217639684677124 0.056099630892276764 0.004329187795519829 0.1298094391822815 0.4577634036540985 0.019088277593255043 0.02561584673821926 0.42831212282180786 0.08240208774805069 0.012641791254281998 0.12383770197629929 0.31986919045448303 1.4246032238006592 0.27287858724594116 0.009122690185904503 0.035253603011369705 0.01443394273519516 0.06079171225428581 0.024381548166275024 0.019601184874773026 0.07477367669343948 0.029201405122876167 0.012439974583685398 0.05602392181754112 0.03364253789186478 0.06302789598703384 0.07588314265012741 1.276460886001587 0.05010778084397316 0.03475435823202133 0.006803272757679224 0.011127215810120106 0.019649451598525047 0.0021483940072357655 0.033034976571798325 0.006041368469595909 0.0274591576308012 0.01651020720601082 0.026328543201088905 0.022411398589611053 0.0034436634741723537 0.01325114257633686 0.02852768264710903 0.04489454999566078 0.003751609707251191 0.059952374547719955 0.013065344654023647 0.03268171101808548 0.030812082812190056
anchor,1.580273151397705 0.030822541564702988 0.09558390825986862 0.018818631768226624 0.0817747414112091 0.12392524629831314 1.2682033777236938 0.41890692710876465 0.04947016388177872 0.046349622309207916 0.02068641223013401 0.4651607871055603 0.05291993170976639 0.016559071838855743 0.04271942377090454 0.0792049840092659 0.005677027627825737 0.008038859814405441 0.035572078078985214 0.3104863166809082 1.5646179914474487 0.03229377046227455 0.022334879264235497 0.02641606703400612 0.013402651995420456 0.21731078624725342 0.5053374767303467 0.045940984040498734 0.5956315994262695 0.02256929874420166 0.012301701121032238 0.0097543615847826 0.004224582575261593 0.013039730489253998 0.033970218151807785 0.6441478133201599 0.02426832914352417 0.008566739037632942 0.051288459450006485 0.042911987751722336 0.030674826353788376 0.027375003322958946 0.12003269791603088 0.01705983467400074 0.0062101976945996284 0.023515615612268448 0.07598570734262466 0.04153072461485863 0.014546021819114685
ankle,0.006791184656322002 0.11902482062578201 0.7033997178077698 0.26757073402404785 0.15567731857299805 0.0820169746875763 0.09214138984680176 0.023684224113821983 0.1712525188922882 1.7023112773895264 0.030461035668849945 0.04889673739671707 0.007995454594492912 0.6418502330780029 0.008135149255394936 0.16149751842021942 0.04736538231372833 0.041818659752607346 0.009541872888803482 0.033942122012376785 0.04532980918884277 0.18342822790145874 0.017077866941690445 0.054508645087480545 0.4559720754623413 0.033461794257164 0.02221575938165188 0.006224178709089756 0.03276166319847107 0.0005452141631394625 0.05909416079521179 0.03715602681040764 0.13877807557582855 0.028691759333014488 0.08195673674345016 0.004328976385295391 1.8908406496047974 0.00911859143525362 0.02070973813533783 0.013966233469545841 0.014445892535150051 0.011596277356147766 0.07718371599912643 0.012668765150010586 0.014185597188770771 0.23451825976371765 0.017934851348400116 0.06038051098585129 0.027833109721541405
anklet,0.46667245030403137 0.08356722444295883 0.4544154703617096 0.7277600765228271 0.0037078962195664644 0.5408589243888855 0.03981649875640869 0.025907231494784355 0.2565104067325592 1.3692665100097656 0.07716558128595352 0.4316873252391815 0.032664746046066284 0.28901493549346924 0.45868319272994995 0.0503012053668499 0.7093302607536316 0.01976761780679226 0.025923334062099457 0.02123291976749897 0.05147368833422661 0.07478179037570953 0.019659260287880898 1.2998839616775513 0.12300565093755722 0.010469770058989525 0.06691484898328781 0.008167991414666176 0.0019238598179072142 0.08672983944416046 0.18774917721748352 0.035522524267435074 0.012303447350859642 0.05133092403411865 0.05050310119986534 1.2058968544006348 1.1137851476669312 0.018595315515995026 0.019924670457839966 0.022961707785725594 0.13723377883434296 0.027131417766213417 0.030491221696138382 0.02229030430316925 0.05317920818924904 0.03563453629612923 0.051896799355745316 0.032737139612436295 0.004851086996495724
ant,0.02083832025527954 0.14994890987873077 1.4695954322814941 0.015846746042370796 0.018088240176439285 1.085288643836975 0.018646137788891792 0.02062462642788887 0.005683303344994783 0.038366761058568954 0.01547179277986288 0.020517505705356598 0.016546957194805145 0.010261448100209236 0.06010520085692406 0.032633740454912186 0.006835144944489002 0.03013552539050579 0.0768585205078125 0.0005376145709306002 0.02260258048772812 0.35092976689338684 0.04943188652396202 0.018861033022403717 0.025995556265115738 0.01390359178185463 0.03302496299147606 0.01005153451114893 0.021602775901556015 0.002643024316057563 0.041035670787096024 0.05150150507688522 0.02965066023170948 0.04325280711054802 1.6954692602157593 0.05305374413728714 0.07843972742557526 0.13094547390937805 0.032161831855773926 0.012472675181925297 0.014929348602890968 0.011181431822478771 0.010171451605856419 0.044023558497428894 0.0189680103212595 0.039261188358068466 0.0448635071516037 0.00998237356543541 0.022348344326019287
anteater,0.08599337190389633 0.0917164757847786 2.3290855884552 0.055372994393110275 0.034730419516563416 0.17551396787166595 0.07877034693956375 0.01979799009859562 0.04154767468571663 0.22301262617111206 0.0009500820306129754 0.016193566843867302 0.011143977753818035 0.0239426176995039 0.009017053060233593 0.32841956615448 0.025912415236234665 0.0029059816151857376 0.007113966625183821 0.07748167961835861 0.053840942680835724 0.2719038426876068 0.007064927369356155 0.0015483367023989558 0.019549425691366196 0.0956505611538887 0.033695146441459656 0.037593964487314224 0.005564067978411913 0.0017371196299791336 0.016749948263168335 0.02262105420231819 0.06968509405851364 0.007963238283991814 0.011900021694600582 0.035747554153203964 0.02073771320283413 0.032786037772893906 0.0025337066035717726 0.01844058185815811 0.051217492669820786 0.012820730917155743 0.02024160325527191 0.01533270999789238 0.012307317927479744 0.01642002910375595 0.05251330882310867 0.01730150729417801 0.008063510060310364
antelope,0.07817614078521729 0.20819321274757385 2.384990692138672 0.03428974375128746 0.0206009354442358 0.18955063819885254 0.16358141601085663 0.04435401409864426 0.3358513414859772 0.14225317537784576 0.009008007124066353 0.07526542991399765 0.012053036130964756 0.10890240967273712 0.040466248989105225 0.04038409888744354 0.009503096342086792 0.017505643889307976 0.019116781651973724 0.01758551597595215 0.020853808149695396 0.0006887733470648527 0.0020826905965805054 0.029583152383565903 0.04352951794862747 0.050227463245391846 0.055898718535900116 0.030610624700784683 0.004070168826729059 0.027219101786613464 0.04265952110290527 0.0202860776335001 0.019461866468191147 0.03560490161180496 0.008131043054163456 0.0537099689245224 0.0383097380399704 0.02814340405166149 0.02821207605302334 0.052748776972293854 0.05715291202068329 0.05301811918616295 0.07930178195238113 0.0014182114973664284 0.06421133130788803 0.036387644708156586 0.027777671813964844 0.012166020460426807 0.0387759767472744
antenna,1.3858590126037598 0.019886266440153122 0.038875821977853775 0.06326782703399658 0.15735015273094177 0.2618781626224518 0.7030310034751892 0.3248837888240814 0.02319573424756527 0.03691866993904114 0.011262875981628895 0.014098267070949078 0.8369334936141968 0.10337714105844498 0.08680348098278046 0.04679311811923981 0.021077405661344528 0.016220707446336746 0.023852065205574036 0.8119218945503235 0.15381303429603577 0.00683722784742713 0.016104845330119133 0.09955686330795288 0.05220670998096466 0.02841128036379814 0.01567956618964672 0.05013028159737587 0.8730357885360718 0.022176282480359077 0.3785087764263153 0.018389128148555756 0.004910607356578112 0.07286245375871658 0.012535812333226204 0.007381334900856018 0.022359320893883705 0.051426149904727936 0.009276860393583775 0.011386383324861526 0.18593157827854156 0.9886770248413086 0.08028922975063324 0.0026855841279029846 0.05910148471593857 0.04251769930124283 0.29495298862457275 0.022580530494451523 0.005288392771035433
anvil,1.8644680976867676 0.047296907752752304 0.15364713966846466 0.018395746126770973 0.03721821308135986 0.06038743630051613 0.9082886576652527 0.3140040934085846 0.6410736441612244 0.0025138368364423513 0.03451692312955856 0.19587664306163788 0.060258060693740845 0.01889558881521225 0.043461304157972336 0.1679418683052063 0.04853814095258713 0.022857213392853737 0.08578532934188843 0.001961126457899809 0.045811012387275696 0.13464514911174774 0.03830966725945473 0.043464262038469315 0.07136714458465576 0.0886000543832779 0.4055126905441284 0.02443096786737442 0.07407360523939133 0.4064362049102783 0.010008791461586952 0.004682446364313364 0.002466679783537984 0.05583969131112099 0.040326446294784546 0.03721613064408302 0.004535863175988197 0.25540152192115784 0.038826834410429 0.08307494223117828 0.02298170141875744 0.014591893181204796 0.09693504124879837 0.09322162717580795 0.05616333708167076 0.03484988212585449 0.04195549711585045 0.04194776341319084 0.08424852043390274
appetizer,0.020445378497242928 2.219064712524414 0.36919546127319336 0.04612182825803757 0.017854440957307816 0.017553986981511116 0.021855460479855537 0.023149127140641212 0.05767383426427841 0.03341958299279213 0.1248493418097496 0.014987037517130375 0.022611385211348534 0.0076240068301558495 0.15735884010791779 0.02648814395070076 0.47725710272789 0.007109115831553936 0.06797529757022858 0.3898320496082306 0.08632680773735046 0.28951162099838257 0.01983564905822277 0.7812609672546387 0.012696783058345318 0.008397003635764122 0.0209573432803154 0.024625614285469055 0.024430306628346443 0.19837938249111176 0.04197796806693077 0.05968017131090164 0.02922588773071766 0.0019120441284030676 0.07203359156847 0.05911099910736084 0.010072337463498116 0.023459937423467636 0.02443060465157032 0.012422146275639534 0.01863732933998108 0.0627012848854065 0.027943437919020653 0.015195355750620365 0.011997715570032597 0.01674792915582657 0.03460826352238655 0.034941140562295914 0.03172480687499046
apple,0.03671039640903473 1.8842418193817139 0.46634355187416077 0.021262241527438164 0.058553583920001984 0.6890261173248291 0.05018479377031326 0.042210739105939865 0.0668892115354538 0.10520686954259872 0.048161741346120834 0.010777502320706844 0.018429743126034737 0.042889658361673355 0.30992427468299866 0.02889447659254074 0.05927556753158569 0.01235783752053976 0.26568296551704407 0.004833109676837921 0.06150038167834282 0.017639819532632828 0.3540186583995819 0.029881630092859268 0.02425212413072586 0.013014285825192928 0.02858910895884037 0.04713118448853493 0.019193526357412338 1.7281625270843506 0.03155260533094406 0.07034387439489365 0.028638891875743866 0.028805622830986977 0.10929253697395325 0.012793377973139286 0.011357270181179047 0.02025441639125347 0.03124132566154003 0.0052981628105044365 0.021100252866744995 0.0062548136338591576 0.05557876452803612 0.06447264552116394 0.02102276124060154 0.020993584766983986 0.04197646304965019 0.009392425417900085 0.032391127198934555
apple tree,0.01231265440583229 1.0628985166549683 0.6123033165931702 0.02411344274878502 0.0006669217254966497 2.1219780445098877 0.7285560369491577 0.04964960739016533 0.13065601885318756 0.007013674825429916 0.34145572781562805 0.30949458479881287 0.0034813089296221733 0.10623787343502045 0.0557088628411293 0.022168312221765518 0.21207717061042786 0.011155490763485432 0.09480639547109604 0.023368990048766136 0.011873326264321804 0.11521799117326736 0.27468663454055786 0.004546123091131449 0.025340553373098373 0.016146311536431313 0.031759146600961685 0.016259469091892242 0.023628391325473785 0.1541646122932434 0.2299031913280487 0.10082630813121796 0.03497399389743805 0.009319005534052849 0.05177310109138489 0.004624045453965664 0.033657461404800415 0.01255728118121624 0.0012445636093616486 0.010532908141613007 0.018194006755948067 0.019129136577248573 0.025001810863614082 0.02526973932981491 0.008944355882704258 0.04546070843935013 0.03661772608757019 0.011006666347384453 0.018062010407447815
applesauce,0.0016732182120904326 2.0493087768554688 0.17270790040493011 0.10455766320228577 0.09829704463481903 0.010670931078493595 0.0250552911311388 0.008348710834980011 0.029043488204479218 0.0671682134270668 0.04915047064423561 0.03092763014137745 0.0029702160973101854 0.03330349922180176 0.5590540766716003 0.02139616198837757 0.027440275996923447 0.03576597943902016 0.6440510153770447 0.008247746154665947 0.06527413427829742 0.31608298420906067 0.026045341044664383 0.05842479318380356 0.19384828209877014 0.005845947191119194 0.0021392786875367165 0.007481814827769995 0.020400451496243477 0.01691601239144802 0.08708906173706055 0.02598225139081478 0.01543404534459114 0.03334543853998184 0.026241684332489967 0.04603170230984688 0.020840736106038094 0.0035042196977883577 0.040578167885541916 0.014620289206504822 0.05924754962325096 0.016745544970035553 0.008134976960718632 0.01399216242134571 0.003715289058163762 0.0262039415538311 0.025777993723750114 0.01287596020847559 0.014261256903409958
apron,0.860131561756134 0.7790530323982239 0.024816015735268593 2.020387887954712 0.35648465156555176 0.09709514677524567 0.10214459896087646 0.15832926332950592 0.31358981132507324 0.21571701765060425 0.052400846034288406 0.04548625275492668 0.037977080792188644 0.10462222993373871 0.08266114443540573 0.2971617877483368 0.06838278472423553 0.017049068585038185 0.23724476993083954 0.057474877685308456 0.13601139187812805 0.0325937494635582 0.03025054559111595 0.01693195477128029 0.05081836134195328 0.2936367094516754 0.31856033205986023 0.045992251485586166 0.0862509161233902 0.008799389004707336 0.013631853275001049 0.06060447543859482 0.1023610308766365 0.01124659739434719 0.05627500265836716 0.007357131224125624 0.02327508106827736 0.018110934644937515 0.3621940314769745 0.03793392330408096 0.0037026091013103724 0.13750824332237244 0.008907931856811047 0.03076309710741043 0.0006556918960995972 0.039487507194280624 0.0010844600619748235 0.04753762483596802 0.015649093315005302
aquarium,0.3499413728713989 0.1937018483877182 0.940618634223938 0.0084476787596941 1.00929594039917 0.9200803637504578 0.07794755697250366 0.26376909017562866 0.015382596291601658 0.0035460677463561296 0.44278499484062195 0.11550230532884598 0.6090041995048523 0.019073283299803734 0.1910644918680191 0.03250034898519516 0.26256442070007324 0.06854275614023209 0.5183278322219849 0.0023220558650791645 1.4460357427597046 0.07628047466278076 0.20806698501110077 0.005152082536369562 0.01446909736841917 0.023130325600504875 0.05593476444482803 0.015905452892184258 0.052983324974775314 0.03526832535862923 0.037747688591480255 0.02900858037173748 0.053725820034742355 0.032917093485593796 0.43250930309295654 0.012005970813333988 0.008706465363502502 0.013489893637597561 0.019207065925002098 0.01629127562046051 0.004895766265690327 0.10370703786611557 0.03096509724855423 0.055460698902606964 0.0036073862574994564 0.042164623737335205 0.04587668925523758 0.028507161885499954 0.01268299762159586
arch,0.9420540928840637 0.009599875658750534 0.056752800941467285 0.034274257719516754 0.2750912308692932 0.001873288070783019 1.0214489698410034 0.57920902967453 0.09910675138235092 0.19447638094425201 0.03880313038825989 0.3370877206325531 0.11707983165979385 0.11668876558542252 0.4583972990512848 0.02616901323199272 0.01894129067659378 0.059140097349882126 0.006851979997009039 0.21139875054359436 0.398375540971756 0.016553962603211403 0.005893309600651264 0.012238782830536366 0.007792787626385689 0.06993632763624191 0.019075103104114532 0.05799831077456474 1.0865259170532227 0.01397708710283041 0.013606106862425804 0.07474517077207565 0.03751204535365105 0.00446839164942503 0.026431959122419357 0.5852888822555542 0.04649660363793373 0.010587341152131557 0.20535387098789215 0.0071584200486540794 0.02422347478568554 0.6932638883590698 0.06839783489704132 0.06920406222343445 0.036571431905031204 0.024845777079463005 0.02964496985077858 0.037897538393735886 0.0752406120300293
arm,0.04913673177361488 0.27464061975479126 0.6144242286682129 0.2204446941614151 0.215904101729393 0.038744062185287476 0.017295747995376587 0.04053818807005882 0.5178269147872925 1.704973578453064 0.09101781994104385 0.07343637198209763 0.04816985875368118 0.30090200901031494 0.0050769406370818615 0.0003040502197109163 0.44864004850387573 0.0671834796667099 0.008087772876024246 0.43364423513412476 0.15159949660301208 0.07510391622781754 0.027210725471377373 0.07771296799182892 0.20723466575145721 0.03680180385708809 0.17164231836795807 0.30385148525238037 0.0071365549229085445 0.10041864961385727 0.21664275228977203 0.32501402497291565 0.022491106763482094 0.01959891989827156 0.2165500521659851 0.01155863981693983 1.209865927696228 0.0020928136073052883 0.032102059572935104 0.048267800360918045 0.03834117576479912 0.010836240835487843 0.040604766458272934 0.06281435489654541 0.015842799097299576 0.012760329060256481 0.028225602582097054 0.04580356925725937 0.09440204501152039
armor,1.594609260559082 0.0047942763194441795 0.5023013353347778 0.6032087206840515 0.022060474380850792 0.023851076140999794 0.051114972680807114 0.352216899394989 0.037941958755254745 0.9524914622306824 0.02873539738357067 0.9342026114463806 0.007694027852267027 0.017639990895986557 0.007133902050554752 0.03810380771756172 0.1029888391494751 0.016949644312262535 0.0016278363764286041 0.007881483063101768 0.08177494257688522 0.12135588377714157 0.051418207585811615 0.017471719533205032 0.018709804862737656 0.034884773194789886 1.090099811553955 0.014284422621130943 0.0547361820936203 0.014014598913490772 0.06062297523021698 0.0628274455666542 0.050856202840805054 0.008966673165559769 0.08348988741636276 0.020336857065558434 0.02112364023923874 0.008715689182281494 0.07072760164737701 0.034181155264377594 0.020119287073612213 0.01808754727244377 0.018110450357198715 0.02093483880162239 0.008100462146103382 0.03626444190740585 0.036513231694698334 0.07238701730966568 0.005900760646909475
arrow,0.7237136363983154 0.008136271499097347 0.216244637966156 0.03424767404794693 0.03504348546266556 0.5474516749382019 0.30590611696243286 0.0997130423784256 0.270145446062088 0.016396109014749527 0.3650459051132202 0.4632548689842224 0.06765815615653992 0.38895800709724426 0.09126772731542587 0.7022275328636169 0.39481815695762634 0.02249019406735897 0.024098452180624008 1.4284591674804688 0.100889652967453 0.04494577273726463 0.03526068851351738 0.020550286397337914 0.0016889105318114161 0.01886715739965439 1.1095982789993286 0.1205361932516098 0.25912994146347046 0.09167874604463577 0.2142404019832611 0.6944431066513062 0.005968782119452953 0.032278236001729965 0.06677938997745514 0.3254806101322174 0.008264572359621525 0.2724001109600067 0.013689356856048107 0.1020764708518982 0.017334196716547012 0.06648940593004227 0.015507190488278866 0.004747010767459869 0.0025599824730306864 0.00863051600754261 0.06253808736801147 0.03957729414105415 0.029446162283420563
artichoke,0.027404814958572388 1.5912233591079712 0.5978825092315674 0.012746376916766167 0.0015958192525431514 2.3236265182495117 0.035712528973817825 0.004072508774697781 0.05547815561294556 0.11193166673183441 0.04893594607710838 0.05836114287376404 0.02988268993794918 0.08977304399013519 0.17299774289131165 0.12119010090827942 0.05358909070491791 0.009086225181818008 0.0036853919737040997 0.04118838533759117 0.07075636088848114 0.038735516369342804 0.02179143764078617 0.11186598986387253 0.06093789264559746 0.019192419946193695 0.04047739505767822 0.06015992909669876 0.007451604586094618 0.35295554995536804 0.27641335129737854 0.00985849741846323 0.012390055693686008 0.021691109985113144 0.005531471222639084 0.014007839374244213 0.05214034393429756 0.08284185081720352 0.03489364683628082 0.017253676429390907 0.034574318677186966 0.030451776459813118 0.04349151626229286 0.004719036165624857 0.009774323552846909 0.043599531054496765 0.08576872199773788 0.025633346289396286 0.03713776916265488
arugula,0.00523121515288949 1.7431403398513794 0.4550265073776245 0.011408613063395023 0.007746036630123854 1.9985277652740479 0.025000454857945442 0.009479562751948833 0.01923673413693905 0.024901442229747772 0.013629009015858173 0.013548649847507477 0.012400158680975437 0.02674008533358574 0.26558253169059753 0.022279804572463036 0.003688206896185875 0.009224677458405495 0.11955905705690384 0.026226012036204338 0.22327710688114166 0.08315801620483398 0.06422536820173264 0.00579450186342001 0.016747575253248215 0.02225732058286667 0.012494837865233421 0.019855551421642303 0.027741599828004837 0.024741461500525475 0.026079703122377396 0.008893645368516445 0.024614091962575912 0.015401218086481094 0.05457033962011337 0.018416566774249077 0.11585675925016403 0.03439735993742943 0.025865841656923294 0.0357331745326519 0.018452325835824013 0.031998515129089355 0.03247782588005066 0.018119988963007927 0.010652894154191017 0.05339276045560837 0.019000129774212837 0.01798791065812111 0.045846596360206604
ashtray,0.4824483096599579 0.3797409236431122 0.01944366656243801 0.04569247364997864 0.027564771473407745 0.05999470129609108 0.04280385002493858 0.028839269652962685 0.08647648990154266 0.09173406660556793 0.03180909901857376 0.005480087827891111 0.033058736473321915 0.023944402113556862 0.21568013727664948 0.07564618438482285 0.21574106812477112 0.022048139944672585 0.4577605426311493 0.17460578680038452 0.006203944329172373 1.1574550867080688 0.04455343633890152 0.044263917952775955 0.057890839874744415 0.05756279453635216 0.3272358477115631 0.10990188270807266 0.004130912479013205 0.016127578914165497 0.039344146847724915 0.03677462786436081 0.035650450736284256 0.15485070645809174 0.03311154246330261 0.104866623878479 0.3723977506160736 0.0025873915292322636 0.018427008762955666 1.3403830528259277 0.09028562158346176 0.0017709245439618826 0.012824817560613155 0.041533444076776505 0.04645875468850136 0.44992440938949585 0.03418615087866783 0.02412167750298977 0.02682908996939659
asparagus,0.0288984477519989 1.5832477807998657 0.3490740656852722 0.02944175712764263 0.0325879268348217 1.7741912603378296 0.19382348656654358 0.016620585694909096 0.1218310296535492 0.02065289579331875 0.009199233725667 0.013113241642713547 0.019694970920681953 0.024502309039235115 0.029887903481721878 0.003704374423250556 0.5396657586097717 0.013371950015425682 0.10811299830675125 0.7463456988334656 0.020449025556445122 0.017140310257673264 0.007597239688038826 0.017471978440880775 0.03308088332414627 0.03350728005170822 0.060038965195417404 0.008977733552455902 0.01065877079963684 0.05468318983912468 0.00494362460449338 0.2732793688774109 0.04443946108222008 0.018580999225378036 0.013856419362127781 0.0017038513906300068 0.017785103991627693 0.03843233361840248 0.03881467506289482 0.03269655257463455 0.01948605291545391 0.031255144625902176 0.008367633447051048 0.07261241227388382 0.015563132241368294 0.026875365525484085 0.023389944806694984 0.023068994283676147 0.02590632066130638
avocado,0.12701115012168884 1.8067047595977783 0.4507511258125305 0.07591608166694641 0.05443648248910904 0.7853913307189941 0.0527828224003315 0.056881774216890335 0.024219153448939323 0.05760272964835167 0.008944831788539886 0.18187446892261505 0.024164725095033646 0.03614099696278572 0.17501163482666016 0.05295241251587868 0.08015671372413635 0.026778804138302803 0.026402506977319717 0.022826099768280983 0.10340600460767746 0.41204121708869934 0.015649430453777313 0.03322665020823479 0.015444132499396801 0.7157281637191772 0.04234854876995087 0.07059991359710693 0.03384912759065628 1.100893259048462 0.009321972727775574 0.048222415149211884 0.03870078921318054 0.04529177397489548 0.020625099539756775 0.01623169146478176 0.011586355976760387 0.04306253045797348 0.0313526950776577 0.017052166163921356 0.017366142943501472 0.04421357437968254 0.03868658095598221 0.015443839132785797 0.039520010352134705 0.01696780137717724 0.0006152766873128712 0.016468973830342293 0.02421323023736477
awning,0.40445443987846375 0.6838512420654297 0.015939630568027496 0.6776337027549744 0.9280831217765808 0.0314096175134182 0.45815008878707886 0.31754419207572937 0.01689542643725872 0.0341419093310833 0.5292589068412781 0.4204505980014801 0.07315252721309662 0.15966671705245972 0.11227152496576309 0.0037018635775893927 0.32898393273353577 0.5211006999015808 0.17926070094108582 0.23824001848697662 0.06472083181142807 0.023521753028035164 0.7749155163764954 0.0587647370994091 0.0031892014667391777 0.37602317333221436 0.03585272282361984 0.05105096846818924 0.2095620036125183 0.07183842360973358 0.0700920820236206 0.6736786365509033 0.02839321456849575 0.09145062416791916 0.014244595542550087 0.1060425341129303 0.004423862788826227 0.014703425578773022 0.01799059472978115 0.20158438384532928 0.05086269602179527 0.8497029542922974 0.028951840475201607 0.12578612565994263 0.017117414623498917 0.00981142371892929 0.11782889813184738 0.0213434100151062 0.02256680279970169
axe,1.2125728130340576 0.10245825350284576 0.241102397441864 0.03258524090051651 0.0867960974574089 0.47714173793792725 1.3459604978561401 0.04620474949479103 1.0715092420578003 0.10907040536403656 0.008438502438366413 0.05530685931444168 0.012357871979475021 0.2419275939464569 0.10997137427330017 1.1272510290145874 0.09729359298944473 0.012910979799926281 0.007745423819869757 0.0880650132894516 0.05648821219801903 0.2369806319475174 0.018763400614261627 0.0882839635014534 0.01841392181813717 0.012668023817241192 1.0286072492599487 0.014043699018657207 0.010951331816613674 0.08136381208896637 0.05588598921895027 0.015515136532485485 0.09070023149251938 0.044644977897405624 0.015664037317037582 0.05457925796508789 0.048674240708351135 0.24653799831867218 0.03947209566831589 0.09128769487142563 0.012153315357863903 0.043510716408491135 0.05570145696401596 0.014885404147207737 0.009408330544829369 0.017718356102705002 0.012620773166418076 0.06193915754556656 0.08625496178865433
baby,0.009669192135334015 0.15227393805980682 0.9273048639297485 0.7945623397827148 0.29555267095565796 0.02197682112455368 0.016986528411507607 0.01383326668292284 0.00011064743739552796 1.4681355953216553 0.4840337634086609 0.013585967943072319 0.0013807803625240922 0.022290540859103203 0.01975446566939354 0.01845446228981018 0.015340994112193584 0.0254976749420166 0.0038036606274545193 0.007875358685851097 0.03424614295363426 0.011409688740968704 0.040217071771621704 0.04727749526500702 0.029274823144078255 0.008661449886858463 0.0033062556758522987 0.004807639867067337 0.0033609962556511164 0.0038605649024248123 0.02876349724829197 0.05798564478754997 0.043401576578617096 0.07962636649608612 0.023525023832917213 0.022027812898159027 0.017100894823670387 0.02244449406862259 0.019377289339900017 0.0262684877961874 0.07053860276937485 0.018333803862333298 0.05314640328288078 0.06277987360954285 1.4748589992523193 0.07484396547079086 0.012156521901488304 0.004859216045588255 0.02178008295595646
backdrop,0.8586389422416687 0.008799787610769272 0.06761304289102554 0.5935943722724915 1.0314991474151611 0.0266758780926466 0.4712739586830139 0.06587280333042145 0.3145090937614441 0.0774320662021637 0.0527116097509861 0.16352534294128418 0.17253732681274414 0.08173009008169174 0.17422465980052948 0.01414983905851841 0.03375677391886711 0.8417160511016846 0.04703076556324959 0.340984970331192 0.021778929978609085 0.05514812842011452 0.022241434082388878 0.06439508497714996 0.013830410316586494 0.062497399747371674 0.0580369308590889 0.08854653686285019 0.09240945428609848 0.013506329618394375 0.05237622931599617 0.8489413857460022 0.016269801184535027 0.03845791891217232 0.019633227959275246 0.06232462450861931 0.03065395914018154 0.50138258934021 0.0819580927491188 0.048166658729314804 0.1312030553817749 0.019397562369704247 0.0626264438033104 0.00690364558249712 0.0329848937690258 0.003576897783204913 0.04406763240695 0.07708201557397842 0.03199974074959755
backgammon,0.7769333124160767 0.09359487891197205 0.03426402062177658 0.07605978846549988 0.489869624376297 0.03481527417898178 0.0036739723291248083 0.20567992329597473 0.6379409432411194 0.05116953328251839 0.6367540955543518 0.5923222899436951 0.27354562282562256 1.0125927925109863 0.11854108422994614 0.22523751854896545 0.8141945600509644 0.7286649346351624 0.006657641381025314 0.504830002784729 0.061067499220371246 0.03554544970393181 0.04608151689171791 0.09719742834568024 0.009981615468859673 0.5098961591720581 0.0705966204404831 0.29299473762512207 0.05282455310225487 0.023246653378009796 0.03105759061872959 0.1351526975631714 0.00968105811625719 0.009950466454029083 0.052050672471523285 0.038179777562618256 0.06934399157762527 0.06053038313984871 0.007965436205267906 0.006074743345379829 0.027689263224601746 0.05202927440404892 0.03682690113782883 0.018243543803691864 0.025902383029460907 0.005060800816863775 0.006294851657003164 0.029089607298374176 0.017279578372836113
backpack,0.668705403804779 0.19293113052845 0.7360449433326721 1.5014312267303467 0.007562861777842045 0.3066713511943817 0.42979827523231506 0.8275192379951477 0.18731829524040222 0.6522481441497803 0.11004612594842911 0.03108861856162548 0.04255928844213486 0.7639741897583008 0.18538039922714233 0.08169562369585037 0.010209822095930576 0.09724150598049164 0.0059867422096431255 0.01608303189277649 0.06851517409086227 0.4011666774749756 0.021359799429774284 0.17721882462501526 0.04918409511446953 0.08200667798519135 0.42700931429862976 0.01713928021490574 0.08331631869077682 0.04702514782547951 0.13384851813316345 0.06145329773426056 0.05235636606812477 0.08148527890443802 0.0446723997592926 0.11039219796657562 0.018760671839118004 0.002866515424102545 0.11051825433969498 0.22186841070652008 0.19029749929904938 0.030169157311320305 0.04858768731355667 0.24729596078395844 0.05459532141685486 0.5847610235214233 0.04028385877609253 0.010442323051393032 0.012517161667346954
backscratcher,0.8969817161560059 0.48759526014328003 0.007392337545752525 0.38675183057785034 0.5150614976882935 0.031224124133586884 0.01809970661997795 0.03887294605374336 1.1720991134643555 0.2524041533470154 0.002892925404012203 0.14774774014949799 0.08527741581201553 0.278005450963974 0.18653330206871033 1.1539850234985352 0.02008809521794319 0.2104278951883316 0.03152799233794212 0.652099072933197 0.0015231778379529715 0.011828676797449589 0.03886210173368454 0.06783220171928406 0.3641628921031952 0.06123185530304909 0.023199500516057014 0.35785308480262756 0.014218713156878948 0.00013783232134301215 0.008688686415553093 0.015171178616583347 0.014397784136235714 0.015042253769934177 0.02197924070060253 0.17671994864940643 0.10331322997808456 0.3804073631763458 0.00269691227003932 0.021019039675593376 0.017713796347379684 0.052017826586961746 0.020591089501976967 0.04375176504254341 0.04364157095551491 0.0807097926735878 0.05372147262096405 0.025340881198644638 0.010224561206996441
bacon,0.21264593303203583 2.131124496459961 0.6214454174041748 0.04682031273841858 0.01508206408470869 0.013257676735520363 0.06329911947250366 0.011212924495339394 0.25272315740585327 0.0498538464307785 0.02488730102777481 0.08284791558980942 0.021466029807925224 0.019790848717093468 0.02884877659380436 0.19089598953723907 0.20324724912643433 0.0059873987920582294 0.05532137677073479 0.16250501573085785 0.03510382026433945 0.10799773037433624 0.08694186806678772 0.07158771902322769 0.07373899221420288 0.013608279637992382 0.02709011733531952 0.11579722911119461 0.01939813420176506 0.011665932834148407 0.03420453891158104 0.6474209427833557 0.046346962451934814 0.034248318523168564 0.057689156383275986 0.052529528737068176 0.3208128809928894 0.014683910645544529 0.014679135754704475 0.13605135679244995 0.03282538801431656 0.006513356696814299 0.006293078884482384 0.023732123896479607 0.0021811111364513636 0.05002801865339279 0.4064353406429291 0.023552916944026947 0.01456709299236536
badge,1.0089188814163208 0.08337420970201492 0.03677802160382271 0.5335809588432312 0.003974940627813339 0.14440888166427612 0.005555582232773304 0.2686091363430023 0.10764950513839722 0.10047870874404907 0.2824135720729828 1.2323118448257446 0.023037848994135857 0.16833661496639252 0.22776123881340027 0.021137883886694908 0.9848231077194214 0.2792896032333374 0.04569493606686592 0.018588140606880188 0.14579200744628906 0.032368216663599014 0.10778402537107468 0.5710575580596924 0.01971406862139702 0.030835239216685295 0.9290191531181335 0.028254147619009018 0.27466267347335815 0.04943176731467247 0.21944990754127502 0.003685619682073593 0.03406070917844772 0.0024126884527504444 0.03069726563990116 0.03631725162267685 0.5781766176223755 0.018500950187444687 0.024653073400259018 0.013833151198923588 0.022869925945997238 0.013787888921797276 0.03329336270689964 0.017048219218850136 0.002632890362292528 0.03249633312225342 0.0018876506946980953 0.733473539352417 0.010987108573317528
badger,0.07323669642210007 0.014376725070178509 2.7197628021240234 0.05101483315229416 0.06743703782558441 0.25125691294670105 0.051245491951704025 0.03836323693394661 0.041498590260744095 0.14138929545879364 0.053689394146203995 0.06065182760357857 0.045709118247032166 0.05064587667584419 0.03095458261668682 0.027820223942399025 0.004168146755546331 0.04218199849128723 0.024494871497154236 0.059721946716308594 0.03481142967939377 0.07368896901607513 0.03237466514110565 0.07553912699222565 0.04047861322760582 0.054850801825523376 0.07671161741018295 0.05803298205137253 0.10257139801979065 0.1464439332485199 0.0400245226919651 0.009138979017734528 0.06445124745368958 0.04572507366538048 0.046646494418382645 0.028620829805731773 0.04166651517152786 0.02084464207291603 0.0294647254049778 0.02338443510234356 0.08004499971866608 0.0019243499264121056 0.056971874088048935 0.03637729585170746 0.06996425986289978 0.06974710524082184 0.03574511408805847 0.05307108163833618 0.03331033140420914
bag,0.6494328379631042 0.5474655032157898 0.025138268247246742 1.64443838596344 0.6116967797279358 0.24332541227340698 0.31199461221694946 0.30255910754203796 0.01676841638982296 0.06806564331054688 0.5687358975410461 0.05460700765252113 0.07610544562339783 0.07421738654375076 0.21401718258857727 0.05616942048072815 0.08144828677177429 0.45193251967430115 0.07396982610225677 0.04164838790893555 0.09482307732105255 0.010316167958080769 0.0756097063422203 0.5636285543441772 0.2304345816373825 0.07262513786554337 0.04578651115298271 0.01595515012741089 0.02740979567170143 0.03328944742679596 0.042379193007946014 0.08430248498916626 0.02219591848552227 0.49765199422836304 0.023739425465464592 0.09284012764692307 0.04809703305363655 0.033295195549726486 0.1149035319685936 0.005695597268640995 0.030520275235176086 0.03289681673049927 0.0184603501111269 0.15096209943294525 0.1817781925201416 0.04986467584967613 0.024121947586536407 0.011660071089863777 0.06339076161384583
bagel,0.06271053105592728 2.090994119644165 0.2651764750480652 0.20851735770702362 0.031532157212495804 0.029323795810341835 0.07881548255681992 0.008981187827885151 0.484208881855011 0.09478588402271271 0.048624128103256226 0.030892059206962585 0.05428214743733406 0.00403626449406147 1.1047966480255127 0.07913829386234283 0.024181053042411804 0.06666651368141174 0.013494905084371567 0.05489697307348251 0.09762775897979736 0.05444555729627609 0.007692033890634775 0.07659183442592621 0.347128301858902 0.0147737767547369 0.03668965399265289 0.04563244432210922 0.0032142431009560823 0.5400785207748413 0.013620494864881039 0.06287728995084763 0.0038361563347280025 0.015928607434034348 0.06257370114326477 0.018520522862672806 0.052029650658369064 0.03457312658429146 0.012351211160421371 0.0016219287645071745 0.05817204341292381 0.01614091545343399 0.027064412832260132 0.0076021719723939896 0.0166401918977499 0.041404373943805695 0.012151623144745827 0.017368711531162262 0.026132848113775253
bagpipe,0.6316636800765991 0.1358882337808609 0.11404705792665482 0.7402995824813843 0.04464345797896385 0.08892323076725006 0.2090131640434265 0.16031858325004578 0.07333850860595703 0.06049315631389618 0.4454669654369354 0.7695487141609192 0.3334752321243286 0.37751704454421997 0.020351264625787735 0.21138040721416473 0.06561759114265442 0.09933912009000778 0.14817634224891663 0.9614244103431702 0.08135119825601578 0.012248657643795013 0.8146225214004517 0.001045187353156507 0.040736306458711624 0.4778723120689392 0.45552173256874084 1.683932900428772 0.04206345975399017 0.012004620395600796 0.00597010925412178 0.024428075179457664 0.37725770473480225 0.023570457473397255 0.014503110200166702 0.37637993693351746 0.16378949582576752 0.025398340076208115 0.031899962574243546 0.015855863690376282 0.007174869533628225 0.06820838153362274 0.010057425126433372 0.018704324960708618 0.017358586192131042 0.1362207531929016 0.007106621749699116 0.5131821036338806 0.02413848415017128
baklava,0.037826891988515854 2.439793825149536 0.2686370015144348 0.09308984130620956 0.004975437186658382 0.011446426622569561 0.03326842933893204 0.005643441807478666 0.27594128251075745 0.05785956606268883 0.007852079346776009 0.016441263258457184 0.02985982783138752 0.013535493984818459 0.030504940077662468 0.040602512657642365 0.015106523409485817 0.07551530748605728 0.006899149157106876 0.025942057371139526 0.025935104116797447 0.029011674225330353 0.022208860144019127 0.012593715451657772 0.06162237748503685 0.011545369401574135 0.025182655081152916 0.021279312670230865 0.018864991143345833 0.025708064436912537 0.049519412219524384 0.04836907237768173 0.021932261064648628 0.02836194634437561 0.014171960763633251 0.019449248909950256 0.008466527797281742 0.015552298165857792 0.029166698455810547 0.011103606782853603 0.035563141107559204 0.021717030555009842 0.00608908711001277 0.030806953087449074 0.00665257265791297 0.0347290076315403 0.04893719404935837 0.010853132233023643 0.020375793799757957
balance beam,0.6702014803886414 0.035769011825323105 0.006265575997531414 0.22863636910915375 0.718133270740509 0.005197802558541298 0.23234568536281586 0.2351672351360321 0.5611372590065002 0.3770127594470978 0.19411203265190125 0.08772998303174973 0.08891922235488892 1.5239241123199463 0.005843245889991522 0.04003097862005234 0.00617653364315629 0.4041975140571594 0.04700285196304321 0.21674636006355286 0.13336139917373657 0.0006096196593716741 0.09731858968734741 0.019507506862282753 0.19263611733913422 0.044686418026685715 0.01905117928981781 0.10943599045276642 0.12744705379009247 0.012270250357687473 0.03312717005610466 0.314363569021225 0.3789122700691223 0.01477855909615755 0.011272980831563473 0.12705795466899872 0.02651064284145832 0.06332069635391235 0.008409913629293442 0.025172259658575058 0.034130048006772995 0.6734527945518494 0.024263855069875717 0.005365515127778053 0.04763742536306381 0.01999858021736145 0.01441940851509571 0.009339181706309319 0.006489720195531845
ball,0.29974687099456787 0.04815761744976044 0.3681356608867645 0.04931359365582466 0.08011073619127274 0.7232965230941772 0.6436231732368469 0.021460937336087227 0.010498445481061935 0.012653081677854061 0.7250400185585022 0.04622747004032135 0.04618992656469345 1.2481497526168823 0.7588128447532654 0.1185971200466156 0.09362577646970749 0.2384348064661026 0.2236025631427765 0.08148802071809769 0.03947663679718971 0.02272033505141735 1.035813331604004 0.4804164469242096 0.03300487995147705 0.08732391893863678 0.019870130345225334 0.06833706051111221 0.024789471179246902 1.5319043397903442 0.02005581744015217 0.5207666158676147 0.10343679040670395 0.03389297053217888 0.008978194557130337 0.073056161403656 0.007881331257522106 0.03728120028972626 0.042776647955179214 0.039026372134685516 0.01829664222896099 0.031196847558021545 0.057102348655462265 0.03499707579612732 0.40875715017318726 0.007728440687060356 0.011981356889009476 0.05971579998731613 0.014400425367057323
balloon,0.17043103277683258 0.32145488262176514 0.017634788528084755 0.2339334785938263 0.25008687376976013 0.35251423716545105 0.2267991453409195 0.08842568844556808 0.0219578854739666 0.025373047217726707 1.4554088115692139 0.3285629153251648 0.22231052815914154 0.6017247438430786 0.05567284673452377 0.011988353915512562 0.6403447985649109 0.0245828740298748 0.22805950045585632 0.07352415472269058 0.05182691290974617 0.0005450156750157475 0.15932099521160126 0.4145834743976593 0.0381220318377018 0.03218047693371773 0.043791092932224274 0.04286232963204384 0.6983255743980408 0.5521953105926514 0.002567175542935729 0.01496683619916439 0.034197092056274414 0.6103881001472473 0.02246197871863842 0.07985540479421616 0.02942846156656742 0.20841164886951447 0.04527796059846878 0.37034475803375244 0.018548153340816498 0.024925021454691887 0.36241576075553894 0.06405654549598694 0.11337292194366455 0.016496654599905014 0.03277825564146042 0.02149316295981407 0.8137484788894653
ballot box,0.7163424491882324 0.01398482546210289 0.01581703871488571 0.09138906002044678 0.6423521041870117 0.0242674108594656 0.21228741109371185 0.07095130532979965 0.13266228139400482 0.6781339645385742 0.11779681593179703 0.14381149411201477 0.24344688653945923 0.15803733468055725 0.045391201972961426 0.04231655225157738 0.057978305965662 1.7148518562316895 0.2899056375026703 0.02018658258020878 0.06996379792690277 0.028063340112566948 0.07235968112945557 0.09292834252119064 0.08598249405622482 0.07491159439086914 0.20763443410396576 0.07465452700853348 0.027941342443227768 0.0071920412592589855 0.03577452525496483 0.009369662962853909 0.8623916506767273 0.7707691788673401 0.034593913704156876 0.008586788550019264 0.4034678339958191 0.05773254856467247 0.01023769099265337 0.030137471854686737 0.020310774445533752 0.049042344093322754 0.012664826586842537 0.2699325382709503 0.03547167405486107 0.02083909884095192 0.03242448344826698 0.022365955635905266 0.0952572301030159
bamboo,0.05768214538693428 0.5779323577880859 0.4760253429412842 0.09787590801715851 0.09953997284173965 1.1969964504241943 0.7611666917800903 0.0016233139904215932 1.2723615169525146 0.07191520929336548 0.013312033377587795 0.18821005523204803 0.021755145862698555 0.026401745155453682 0.03474520146846771 0.008995138108730316 0.3169388771057129 0.016395486891269684 0.04510612040758133 1.3998346328735352 0.023318514227867126 0.026926591992378235 0.011904117651283741 0.0081431670114398 0.02502598986029625 0.045219529420137405 0.010229651816189289 0.14439800381660461 0.06148112565279007 0.005923025775700808 0.13639502227306366 0.08220656961202621 0.3159942626953125 0.03867349401116371 0.3453866243362427 0.06447122246026993 0.03692999482154846 0.029894158244132996 0.18458570539951324 0.22637081146240234 0.014154145494103432 0.228351891040802 0.049917787313461304 0.05771989747881889 0.005084815435111523 0.009586533531546593 0.04625563696026802 0.004049269482493401 0.08364176750183105
banana,0.06647499650716782 1.7132428884506226 0.4740152359008789 0.2783861756324768 0.002692570211365819 0.8012833595275879 0.0009440627763979137 0.00772735895588994 0.07139351963996887 0.08812812715768814 0.03191911056637764 0.01235867664217949 0.03296861797571182 0.1077028214931488 0.0072538480162620544 0.4625415802001953 0.05403375253081322 0.0718095600605011 0.048662155866622925 0.04651711881160736 0.15945318341255188 0.005156778264790773 0.031021615490317345 0.017372868955135345 0.1469791978597641 0.16637656092643738 0.012182862497866154 0.127444788813591 0.03730321675539017 0.20563234388828278 0.008468287996947765 0.024828031659126282 0.060639914125204086 0.013592210598289967 0.13133923709392548 0.13141728937625885 0.026827456429600716 0.03309278190135956 0.0036875884979963303 0.0071367439813911915 0.06527362018823624 0.01461066398769617 0.005389302968978882 0.06565911322832108 0.014174364507198334 0.021527891978621483 0.0034339968115091324 0.0032416044268757105 0.2755272686481476
banana peel,0.054938819259405136 1.5853965282440186 0.2809288799762726 0.07063374668359756 0.09039914608001709 0.7732981443405151 0.15240728855133057 0.007118142209947109 0.22893638908863068 0.2895062267780304 0.021717185154557228 0.03282786160707474 0.032178621739149094 0.1264389306306839 0.015087420120835304 0.12490013241767883 0.012225906364619732 0.04807246848940849 0.20260068774223328 0.033218346536159515 0.06726839393377304 0.3992246091365814 0.020573269575834274 0.01772044599056244 0.4288184940814972 0.09402051568031311 0.012077459134161472 0.030014339834451675 0.023292500525712967 0.041146084666252136 0.011342735029757023 0.12823235988616943 0.02127394825220108 0.009506532922387123 0.19307756423950195 0.0279230996966362 0.06680746376514435 0.02512865513563156 0.0069205183535814285 0.03179372474551201 0.020146403461694717 0.02083021029829979 0.016168944537639618 0.000654267321806401 0.018434768542647362 0.01113717257976532 0.0659356489777565 0.022920379415154457 0.03747374191880226
banana split,0.017407435923814774 2.166703701019287 0.13324323296546936 0.053180500864982605 0.018456418067216873 0.09836144000291824 0.01714332215487957 0.026146922260522842 0.03336920961737633 0.04716118425130844 0.9452030658721924 0.03506354242563248 0.004954491276293993 0.038145653903484344 0.04161074757575989 0.04506434127688408 0.055288273841142654 0.013469615951180458 0.09126294404268265 0.03638538718223572 0.27100279927253723 0.061557065695524216 0.07554735988378525 0.35319510102272034 0.06411383301019669 0.03702405467629433 0.03080749697983265 0.026987433433532715 0.01871071197092533 0.018302276730537415 0.060714464634656906 0.01979672536253929 0.04536872357130051 0.0254477858543396 0.10372789204120636 0.027176043018698692 0.06042460352182388 0.05692296847701073 0.03712480887770653 0.2620914578437805 0.042739544063806534 0.015650549903512 0.017706962302327156 0.04167601466178894 0.03504403308033943 0.02626575529575348 0.03465872257947922 0.04670326039195061 0.053221628069877625
bandage,0.450082927942276 0.1517007052898407 0.17187023162841797 0.4892582595348358 0.2615571916103363 0.06480028480291367 0.24160251021385193 0.07168297469615936 0.3718690276145935 0.48957017064094543 0.036112938076257706 0.06411447376012802 0.07555562257766724 0.05545979365706444 0.030815478414297104 0.21742571890354156 0.002509943675249815 0.6713058948516846 0.08698725700378418 0.021205589175224304 0.05692547559738159 0.2126990407705307 0.3124966323375702 0.030908741056919098 0.8662271499633789 0.024892345070838928 0.1997082680463791 0.10539832711219788 0.03655683249235153 0.012082717381417751 0.02470901980996132 0.4721844792366028 0.20052051544189453 1.3934290409088135 0.2609308362007141 0.016667120158672333 0.7273632287979126 0.09163298457860947 0.0352969653904438 0.02718101441860199 0.039180636405944824 0.07349898666143417 0.04512138292193413 0.007296516094356775 0.0029283768963068724 0.3467658460140228 0.03325921669602394 0.026445001363754272 0.0037118869367986917
bandanna,0.673105776309967 0.23451319336891174 0.06776443868875504 1.9400185346603394 0.4019668400287628 0.054541874676942825 0.09981175512075424 0.2545442581176758 0.12565156817436218 0.05562657117843628 0.819257378578186 0.32468149065971375 0.04145555943250656 0.1274423599243164 0.008662406355142593 0.10180218517780304 0.7977767586708069 0.03722798079252243 0.09835637360811234 0.027497639879584312 0.019688572734594345 0.0010698086116462946 0.6031169891357422 0.14954368770122528 0.17528177797794342 0.1073337271809578 0.024504078552126884 0.09243662655353546 0.03755738586187363 0.04185863584280014 0.04234668239951134 0.009706567041575909 0.06228794530034065 0.0444510318338871 0.006846789736300707 0.06125078722834587 0.010120181366801262 0.010163317434489727 0.011867537163197994 0.007466895040124655 0.2761819064617157 0.02591043896973133 0.08514818549156189 0.008916016668081284 0.3539021909236908 0.014652219600975513 0.03287726268172264 0.056161459535360336 0.016985038295388222
banjo,1.0364227294921875 0.05601596087217331 0.00628857035189867 0.33290258049964905 0.008537687361240387 0.019037675112485886 0.014744487591087818 0.24003081023693085 0.39621758460998535 0.04313628748059273 0.12480003386735916 0.6305138468742371 0.3144613206386566 0.40095293521881104 1.0280702114105225 0.7184780240058899 0.027788391336798668 0.12792843580245972 0.18720223009586334 0.21858535706996918 0.09562467783689499 0.03958247974514961 0.5540157556533813 0.061715979129076004 0.024383865296840668 0.06507548689842224 0.00892061460763216 1.9587287902832031 0.014972924254834652 0.17264333367347717 0.062300749123096466 0.012540978379547596 0.02254614420235157 0.2135031372308731 0.0018139129970222712 0.034246787428855896 0.016687439754605293 0.019381536170840263 0.03031579777598381 0.011565779335796833 0.10335595905780792 0.11425202339887619 0.3015903830528259 0.02337200753390789 0.008899194188416004 0.009951005689799786 0.01657193712890148 0.006417319178581238 0.036424629390239716
bank,0.8434721827507019 0.4374339282512665 0.00937429629266262 0.1601635366678238 0.4183366000652313 0.04856818914413452 0.11004306375980377 0.15850454568862915 0.20712345838546753 0.0027354408521205187 0.5325382351875305 0.21141645312309265 0.04689738154411316 0.05681673809885979 0.5366301536560059 0.06599042564630508 0.6876840591430664 0.5648413300514221 0.9723991751670837 0.11879971623420715 0.03681318461894989 0.06740777939558029 0.04623343423008919 0.24882638454437256 0.21348507702350616 0.05213959142565727 0.012494818307459354 0.06368248909711838 0.018139807507395744 0.010374903678894043 0.03355653956532478 0.004902297630906105 0.059392258524894714 0.06276635825634003 0.015078641474246979 0.007770819589495659 0.02614850364625454 0.036877475678920746 0.013694295659661293 0.0556861013174057 0.039431143552064896 0.00415415596216917 0.030573461204767227 1.1354566812515259 0.3021062910556793 0.050693050026893616 0.05113019049167633 0.5894723534584045 0.5478417873382568
banner,0.09198027849197388 0.10300491750240326 0.14509178698062897 0.3814459443092346 0.022002099081873894 0.1331086903810501 1.0026216506958008 0.41204747557640076 0.02952413819730282 0.05965074151754379 0.4886133670806885 0.8407208323478699 0.24994352459907532 0.2806263566017151 0.06116921454668045 0.022756481543183327 0.105080246925354 0.9458553194999695 0.035248056054115295 0.10022677481174469 0.0314120315015316 0.02617640420794487 0.9419822096824646 0.00218721991404891 0.015067262575030327 0.007749931421130896 0.32711660861968994 0.1686122864484787 0.0668870359659195 0.017367016524076462 0.03948193043470383 0.6088266968727112 0.010995445773005486 0.12308527529239655 0.020370490849018097 0.005050105974078178 0.004553519189357758 0.013072102330625057 0.03283796086907387 0.1012822613120079 0.010483277961611748 0.003752506338059902 0.0030468953773379326 0.39471235871315 0.027799144387245178 0.04106428846716881 0.013682295568287373 0.02267448976635933 0.05392211675643921
barbed wire,1.1833827495574951 0.00933063868433237 0.6151633858680725 0.014246776700019836 0.034955330193042755 0.6911261677742004 1.2275480031967163 0.13873177766799927 0.009333329275250435 0.018170636147260666 0.021544145420193672 0.023824330419301987 0.002395592164248228 0.00984499603509903 0.03397900238633156 0.22605252265930176 0.2760554552078247 0.026642510667443275 0.015935417264699936 0.08527446538209915 0.010394835844635963 0.24215184152126312 0.01618299074470997 0.03783727437257767 0.006230469793081284 0.01334932167083025 0.275410920381546 0.004887748509645462 0.03990480676293373 0.017374321818351746 0.7418226003646851 0.04967199265956879 0.047453831881284714 0.02673845738172531 0.037842657417058945 0.23350052535533905 0.02236766181886196 0.041172366589307785 0.01340855099260807 0.03328922390937805 0.01054812129586935 0.694142758846283 0.03245699778199196 0.028911981731653214 0.018630556762218475 0.008010252378880978 0.16051466763019562 0.03977613151073456 0.006371431518346071
barbell,1.5781747102737427 0.00020641990704461932 0.0463077537715435 0.035868339240550995 0.23278282582759857 0.018767179921269417 0.1229448989033699 0.25687578320503235 0.00841595884412527 0.20449215173721313 0.03832737356424332 0.023551559075713158 0.07385775446891785 1.003595232963562 0.31718379259109497 0.424780011177063 0.027807064354419708 0.014283882454037666 0.02088949643075466 0.5342793464660645 0.04010825976729393 0.03132350370287895 0.0006197319598868489 0.047185104340314865 0.32309335470199585 0.015872284770011902 0.5444113612174988 0.3453068733215332 0.05626900866627693 0.18892838060855865 0.012652317993342876 0.013440694659948349 0.009764732792973518 0.05807163566350937 0.01723545789718628 0.03534964099526405 0.025214919820427895 0.01309571135789156 0.02432720735669136 0.011223082430660725 0.01981162093579769 0.13269907236099243 0.06606704741716385 0.02466507814824581 0.032988276332616806 0.009233692660927773 0.013360556215047836 0.05866388604044914 0.022182954475283623
barcode,0.4916611611843109 0.34225937724113464 0.0025562457740306854 0.32720693945884705 0.35139110684394836 0.018835701048374176 0.017011869698762894 0.041242439299821854 0.14734473824501038 0.11519773304462433 0.1885729283094406 0.019254537299275398 1.0985723733901978 0.09070505201816559 0.10450997948646545 0.023991553112864494 0.4945679306983948 1.0566006898880005 0.00723754009231925 0.2937057912349701 0.008653074502944946 0.03218458965420723 0.009079810231924057 0.024841193109750748 0.004686358850449324 0.06752784550189972 0.037555817514657974 0.06652405112981796 0.023450488224625587 0.06122756749391556 0.0170369204133749 1.0091079473495483 0.013019897975027561 0.05244860425591469 0.0027958406135439873 0.004734591580927372 0.10770267248153687 0.017416607588529587 0.014352374710142612 0.05497797951102257 0.028274210169911385 0.05601607635617256 0.029963603243231773 0.025803443044424057 0.01952323317527771 0.15142396092414856 0.027993889525532722 0.02902529574930668 0.025816626846790314
bark,0.4716799259185791 0.3543645441532135 0.5097486972808838 0.17232173681259155 0.007468522991985083 0.8235445022583008 1.0493046045303345 0.008301852270960808 1.5995548963546753 0.06023360788822174 0.022391576319932938 0.023807086050510406 0.004096428398042917 0.06256760656833649 0.009662414900958538 0.025217914953827858 0.027893558144569397 0.21440936625003815 0.003436627797782421 0.014145822264254093 0.006394538562744856 1.067376971244812 0.09934677928686142 0.01462387852370739 3.152260251226835e-05 0.29075175523757935 0.03176060691475868 0.23638148605823517 0.013636681251227856 0.024302823469042778 0.14009998738765717 0.13878732919692993 0.008060709573328495 0.027459217235445976 0.1931094378232956 0.022145619615912437 0.009312836453318596 0.01170187909156084 0.0026852418668568134 0.01921694539487362 0.007526739500463009 0.02097340114414692 0.015958847478032112 0.0031665952410548925 0.0023398958146572113 0.011708647944033146 0.01507994718849659 0.06416406482458115 0.01784464344382286
barnacle,0.23094919323921204 0.6496899724006653 0.6769344806671143 0.01959252543747425 0.015453354455530643 0.8529197573661804 0.3839755058288574 0.009674387983977795 0.00580455269664526 0.04443257674574852 0.01920264959335327 0.036019325256347656 0.05344874784350395 0.006495096255093813 0.23720349371433258 0.008653695695102215 1.2209339141845703 0.05718983709812164 0.02291644550859928 0.014923974871635437 0.9054117798805237 1.177368402481079 0.018757250159978867 0.7780666947364807 0.007986527867615223 0.01976337656378746 0.023195207118988037 0.04538356140255928 0.08684363961219788 0.41735318303108215 0.01926332339644432 0.03063976764678955 0.24793383479118347 0.025860141962766647 0.3161102831363678 0.027747351676225662 0.056216761469841 0.007076039910316467 0.012470687739551067 0.012989924289286137 0.0214487724006176 0.03758997097611427 0.004166061524301767 0.04076871648430824 0.03633832931518555 0.027541689574718475 0.08946093171834946 0.03387124463915825 0.02241654321551323
barrel,1.0639177560806274 0.7291992902755737 0.08211391419172287 0.1844596564769745 0.15336908400058746 0.2964290678501129 0.4109942615032196 0.3274182975292206 1.79147469997406 0.03374330326914787 0.0527891181409359 0.08119431138038635 0.025277676060795784 0.06111982837319374 0.45019179582595825 0.02174961194396019 0.29247310757637024 0.01685582660138607 1.2280076742172241 0.02099057100713253 0.15210160613059998 0.10685308277606964 0.07133956253528595 0.06619499623775482 0.04324866831302643 0.1064651757478714 0.009408935904502869 0.16168934106826782 0.027800600975751877 0.17424407601356506 0.016787732020020485 0.012197022326290607 0.04501360282301903 0.07199752330780029 0.05673738941550255 0.044453300535678864 0.029266927391290665 0.024431202560663223 0.03865034133195877 0.06945372372865677 0.06456626206636429 0.08462224900722504 0.03167685493826866 1.1587399244308472 0.05832676962018013 0.03720443695783615 0.016110269352793694 0.04878155514597893 0.45010313391685486
barrette,0.7517893314361572 0.06478262692689896 0.4429566562175751 0.7898678779602051 0.00899210013449192 0.20122143626213074 0.012495624832808971 0.03037061169743538 0.08473449945449829 0.6577578186988831 0.05336100235581398 0.4289357662200928 0.009100419469177723 0.026565812528133392 0.004776230081915855 0.2908931076526642 0.06384904682636261 0.010882323607802391 0.018517518416047096 0.3307821750640869 0.08133859932422638 0.02328277751803398 0.013448361307382584 1.0023937225341797 0.04513319954276085 0.12659786641597748 0.0359765887260437 0.04295000433921814 0.04106878116726875 0.009069268591701984 1.077368140220642 0.02394331619143486 0.004613685887306929 0.02581162564456463 0.20071814954280853 0.008811340667307377 0.7204726934432983 0.06173393875360489 0.01440249290317297 0.012580228969454765 1.461071252822876 0.008508937433362007 0.003984417300671339 0.01086429413408041 0.15746329724788666 0.010122896172106266 0.005452073644846678 0.101524718105793 0.030704542994499207
baseball,0.4884491264820099 0.11685792356729507 0.20793351531028748 0.2875657379627228 0.1540626436471939 0.12356402724981308 0.3434346616268158 0.2243841141462326 0.5316107273101807 0.027653809636831284 0.43431124091148376 0.017787637189030647 0.17342230677604675 1.4472148418426514 0.7790406942367554 0.049358345568180084 0.1651029884815216 0.19700762629508972 0.08169440925121307 0.19856873154640198 0.04180485010147095 0.06493892520666122 0.009114512242376804 0.23613110184669495 0.14005257189273834 0.04236394539475441 0.13052411377429962 0.12294019013643265 0.11189870536327362 1.4436336755752563 0.15946511924266815 0.09111680835485458 0.7708755135536194 0.13872092962265015 0.03575330972671509 0.022068893536925316 0.3238271176815033 0.06343977153301239 0.01169717125594616 0.02018771506845951 0.6543861627578735 0.008049636147916317 0.013200008310377598 0.3139856159687042 0.03173723816871643 0.04301575943827629 0.09960836172103882 0.029649721458554268 0.02874211221933365
baseball bat,0.9061307311058044 0.21820366382598877 0.02899908646941185 0.10095517337322235 0.17432871460914612 0.12764282524585724 0.11779261380434036 0.0464104562997818 1.3358252048492432 0.12433603405952454 0.20097583532333374 0.017458200454711914 0.08863568305969238 1.2505931854248047 0.045154739171266556 0.6808409690856934 0.3639226257801056 0.0009055820992216468 0.008879591710865498 1.274387240409851 0.058697741478681564 0.09022489935159683 0.01648995652794838 0.006362803280353546 0.019941605627536774 0.0771327093243599 0.6910107731819153 0.08284406363964081 0.037653230130672455 0.04664117097854614 0.03863716125488281 0.04373332858085632 0.38247764110565186 0.37159088253974915 0.019595613703131676 0.022038012742996216 0.0487157478928566 0.006977020297199488 -7.762532914057374e-05 0.09073572605848312 0.08819477260112762 0.03320467099547386 0.026058144867420197 0.0017224211478605866 0.04735632613301277 0.10977891832590103 0.007263840176165104 0.011433200910687447 0.07633762061595917
baseball glove,0.8565329909324646 0.4064486622810364 0.2692325711250305 1.0108751058578491 0.031080350279808044 0.011450354009866714 0.5446240305900574 0.27955618500709534 0.5619301795959473 0.09950678050518036 0.1741483360528946 0.02630326896905899 0.048900168389081955 1.7353333234786987 0.27318075299263 0.02144911140203476 0.011357095092535019 0.1822882443666458 0.11675126105546951 0.007844243198633194 0.08082915097475052 0.11392705887556076 0.047431547194719315 0.35482093691825867 0.15405744314193726 0.1141701191663742 0.22098149359226227 0.38170766830444336 0.029432272538542747 0.04225027188658714 0.1641945093870163 0.05396253243088722 0.027863046154379845 0.006508056540042162 0.19281475245952606 0.2615070044994354 0.4723338782787323 0.018533241003751755 0.004899989813566208 0.012700268998742104 0.022701270878314972 0.10319219529628754 0.030252182856202126 0.04742420092225075 0.015607940964400768 0.010784228332340717 0.08173765242099762 0.03961998224258423 0.05461474508047104
basil,0.004279070533812046 1.2011325359344482 0.6236887574195862 0.07968863099813461 0.0428355373442173 2.4072484970092773 0.39110663533210754 0.004780628718435764 0.03419717773795128 0.018771449103951454 0.033501435071229935 0.05223684012889862 0.012024459429085255 0.03123970702290535 0.06328926235437393 0.018635204061865807 0.025585895404219627 0.030504927039146423 0.1538313329219818 0.03283467888832092 0.023670656606554985 0.20487862825393677 0.012435071170330048 0.02976287715137005 0.037138137966394424 0.04007445275783539 0.016963427886366844 0.02585301175713539 0.07374250143766403 0.018529566004872322 0.09170123934745789 0.10944000631570816 0.08973541110754013 0.29952114820480347 0.03462184593081474 0.013098363764584064 0.0250014066696167 0.022862641140818596 0.008028621785342693 0.05341118574142456 0.013568094931542873 0.015683723613619804 0.02608938328921795 0.04776596277952194 0.043213341385126114 0.022407887503504753 0.03274962306022644 0.09309766441583633 0.02612416073679924
basket,0.7965888977050781 0.6185222268104553 0.2823070287704468 0.5547733902931213 0.72557532787323 0.43692103028297424 0.21449291706085205 0.04028177261352539 1.2036261558532715 0.022300537675619125 0.05902385339140892 0.28127679228782654 0.037604302167892456 0.009583791717886925 0.4327102303504944 0.13213078677654266 0.6566051840782166 0.10645730048418045 0.30935779213905334 0.09214822202920914 0.013348901644349098 0.029871147125959396 0.17906077206134796 0.1862482726573944 0.058549415320158005 0.03293493390083313 0.01734103448688984 0.026469867676496506 0.030789250507950783 0.2905445992946625 0.8265190720558167 0.07332238554954529 0.04614480212330818 0.2776695489883423 0.001609083148650825 0.18639948964118958 0.013252208940684795 0.005049008410423994 0.03793508559465408 0.013495069928467274 0.08766374737024307 0.04146701842546463 0.4418567717075348 0.6881051063537598 0.030178675428032875 0.009799552150070667 0.03563281148672104 1.31786048412323 0.06339344382286072
basketball,0.47528064250946045 0.041010212153196335 0.058215778321027756 0.43826383352279663 0.15482166409492493 0.1764506995677948 0.03050878643989563 0.07556392252445221 0.3258514702320099 0.041857559233903885 0.34030333161354065 0.012736926786601543 0.2449915111064911 1.4816265106201172 1.1450722217559814 0.022806445136666298 0.01163511537015438 0.1366043984889984 0.02800734154880047 0.01938667893409729 0.010139198042452335 0.04058244451880455 0.020112479105591774 0.02178768254816532 0.026320993900299072 0.11012636870145798 0.13990747928619385 0.2673822045326233 0.04130116105079651 1.6983317136764526 0.011272918432950974 0.038187526166439056 0.0379791334271431 0.05601030960679054 0.010746312327682972 0.05393775552511215 0.010186348110437393 0.02503601834177971 0.0733141377568245 0.04050256311893463 0.2614818513393402 0.017358368262648582 0.07643286138772964 0.2290739119052887 0.011159056797623634 0.013035906478762627 0.04772507771849632 0.006078150123357773 0.013942759484052658
basketball hoop,0.7888416051864624 0.018542854115366936 0.00899544544517994 0.10566449910402298 0.2139270007610321 0.12808109819889069 0.6617515683174133 0.024591568857431412 0.029599735513329506 0.1484416425228119 0.002346170600503683 0.265386164188385 0.04238341376185417 1.4509721994400024 1.0753282308578491 0.016720913350582123 0.01269556488841772 0.04140118509531021 0.016918230801820755 0.1847844421863556 0.006890987511724234 0.014067471958696842 0.5666542649269104 0.0639490932226181 0.02644011750817299 0.010895084589719772 0.007172676268965006 0.04436566308140755 0.4774586856365204 0.15189224481582642 0.5468121767044067 0.08697564899921417 0.015996720641851425 0.049949511885643005 0.023808538913726807 0.05934279039502144 0.0460984967648983 0.02399069257080555 0.03479903191328049 0.006339278072118759 0.06688521057367325 0.9042291641235352 0.033368632197380066 0.3823537528514862 0.01567281410098076 0.002874362515285611 0.3681924045085907 0.16804911196231842 0.007406727410852909
bassinet,0.41252657771110535 0.13953897356987 0.16319890320301056 1.0631661415100098 1.156330943107605 0.05392710864543915 0.029145289212465286 0.3841263949871063 0.3883935809135437 0.05772491171956062 0.08978313952684402 0.18912914395332336 0.16177998483181 0.06537866592407227 0.13162976503372192 0.044982265681028366 0.0008132843067869544 0.0941445603966713 0.26907065510749817 0.0603799931704998 0.317057341337204 0.04662457853555679 0.02576267719268799 0.2993822991847992 0.0324908010661602 0.03301329165697098 0.057216621935367584 0.25924941897392273 0.03311377763748169 0.02261713147163391 0.1874312311410904 0.006968292873352766 0.08218745142221451 0.510773777961731 0.029483389109373093 0.03839649260044098 0.31206315755844116 0.07607118785381317 0.010510263964533806 0.05501283332705498 0.060567256063222885 0.023270411416888237 0.9924915432929993 0.04835684970021248 1.276728868484497 0.01237692404538393 0.05548233166337013 0.27973413467407227 0.0354381687939167
bassoon,0.9761466383934021 0.038292545825242996 0.053301163017749786 0.13659057021141052 0.14235077798366547 0.09578733891248703 0.24556508660316467 0.2392529547214508 0.2254495471715927 0.21654699742794037 0.21839399635791779 0.7085992693901062 0.3481192886829376 0.3013583719730377 0.04510482773184776 0.8287199139595032 0.07868648320436478 0.40422573685646057 0.27533087134361267 0.8549512624740601 0.06056376174092293 0.046002648770809174 0.08869393169879913 0.46210846304893494 0.09948768466711044 0.14515605568885803 0.026558037847280502 1.963982105255127 0.16685432195663452 0.14325623214244843 0.01109280250966549 0.13175761699676514 0.03519432991743088 0.03336624428629875 0.04649374634027481 0.0497383214533329 0.08055776357650757 0.028310470283031464 0.05680552497506142 0.2609069347381592 0.019285213202238083 0.226827472448349 0.13270239531993866 0.04412377253174782 0.011878849938511848 0.052159085869789124 0.1100708395242691 0.07336127758026123 0.014052439481019974
bat,0.0013559883227571845 0.03097655065357685 2.2458558082580566 0.081174835562706 0.031176621094346046 0.03559339791536331 0.04463684558868408 0.0210296381264925 0.0579233393073082 0.07512734830379486 0.009829137474298477 0.021149860695004463 0.0020790104754269123 0.012887361459434032 0.0002308124676346779 0.02521328069269657 0.004867727868258953 0.007889315485954285 0.01381075568497181 0.02361506223678589 0.020499175414443016 0.15770719945430756 0.010933217592537403 0.0501754954457283 0.012712803669273853 0.058667849749326706 0.06773902475833893 0.011118141002953053 0.034859031438827515 0.053557559847831726 0.014277078211307526 0.015000289306044579 0.05200372263789177 0.009133833460509777 0.4362408220767975 0.013795305043458939 0.05478081479668617 0.01082227099686861 0.0282354224473238 0.000530184421222657 0.1426401287317276 0.05777967721223831 0.02556411176919937 0.004993244539946318 0.0018670372664928436 0.0367140956223011 0.00307660736143589 0.06678443402051926 0.02896394021809101
bathmat,0.5362513065338135 0.023700634017586708 0.07800091803073883 1.2384625673294067 1.4063969850540161 0.5668664574623108 0.1979079395532608 0.04793109372258186 0.08042153716087341 0.061670683324337006 0.08396902680397034 0.010838674381375313 0.015901364386081696 0.32531481981277466 0.02719438262283802 0.3263370990753174 0.2548397183418274 0.3895401954650879 0.1959558129310608 0.10934093594551086 0.07859176397323608 0.11415357887744904 0.09191757440567017 0.10020653903484344 0.5017629861831665 0.05010836943984032 0.10347763448953629 0.02135797217488289 0.03174864873290062 0.009743832051753998 0.09392789006233215 1.7157102823257446 0.05132116749882698 0.015463271178305149 0.05140331760048866 0.07666195929050446 0.04548370838165283 0.028419964015483856 0.13619528710842133 0.03994534909725189 0.10831040889024734 0.030623216181993484 0.04074505344033241 0.010013868100941181 0.020423531532287598 0.06491973251104355 0.029127271845936775 0.06315625458955765 0.005057565867900848
bathrobe,0.24073563516139984 0.23460716009140015 0.11495956778526306 1.8778584003448486 1.0065656900405884 0.08903413265943527 0.07217351347208023 0.07453009486198425 0.0211796835064888 0.8905236124992371 0.01640753075480461 0.56315016746521 0.08949153870344162 0.032231058925390244 0.43087849020957947 0.01832210086286068 0.055121660232543945 0.019822407513856888 0.49757862091064453 0.07352839410305023 0.4473736584186554 0.013047878630459309 0.027770496904850006 0.16937385499477386 0.4706343114376068 0.016717949882149696 0.02995561994612217 0.04955092817544937 0.09485622495412827 0.026401201263070107 0.008950010873377323 0.014738165773451328 1.0330661535263062 0.01565271057188511 0.025006644427776337 0.0167428869754076 0.1434544324874878 0.27582699060440063 0.005419915542006493 0.02419273741543293 0.06190607696771622 0.0017695013666525483 0.010546739213168621 0.025578845292329788 0.05618882551789284 0.02348070591688156 0.015140076167881489 0.03379907086491585 0.03171544149518013
bathtub,0.7455307841300964 0.2122139185667038 0.029363594949245453 0.16099251806735992 1.7590868473052979 0.03683990240097046 0.14528672397136688 0.04917656630277634 0.2108539193868637 0.39620959758758545 0.016326043754816055 0.02121747098863125 0.020279444754123688 0.04536938667297363 0.005502833519130945 0.0077646756544709206 0.006974903866648674 0.019705742597579956 0.6280111074447632 0.003787427907809615 1.1145122051239014 0.005412556231021881 0.013210172764956951 0.10096675902605057 1.490570306777954 0.00038821814814582467 0.035914041101932526 0.3161846399307251 0.045064039528369904 0.0418771430850029 0.016019418835639954 0.009624558500945568 0.3986632525920868 0.01852230913937092 0.011530919931828976 0.020829398185014725 0.08366212993860245 0.0009282215032726526 0.04669151082634926 0.0091862129047513 0.030179079622030258 0.013613631948828697 0.007032536435872316 0.7945401668548584 0.011161773465573788 0.09881891310214996 0.0019367290660738945 0.045253217220306396 0.03645063936710358
baton,1.2625356912612915 0.004759699106216431 0.03435301408171654 0.2057827264070511 0.35646745562553406 0.02274441346526146 0.04001859948039055 0.009163170121610165 0.06899172067642212 0.1703883558511734 0.02170397900044918 0.26665425300598145 0.16244935989379883 0.2723829448223114 4.847901436733082e-06 1.5623008012771606 0.11676856130361557 0.03097822703421116 0.016090136021375656 1.3063784837722778 0.05043623223900795 0.002775943372398615 0.015752650797367096 0.013712114654481411 0.009218274615705013 0.12898734211921692 0.09435471892356873 0.24146658182144165 0.04049409553408623 0.08362539857625961 0.004886853042989969 0.1538240611553192 0.008530843071639538 0.020552486181259155 0.4053440988063812 0.011627482250332832 0.0510149784386158 0.25028717517852783 0.004043476190418005 0.16420581936836243 0.011514046229422092 0.19115665555000305 0.03691234812140465 0.011362488381564617 0.005552996881306171 0.020538153126835823 0.014435640536248684 0.015244429931044579 0.022180432453751564
batter,0.43757012486457825 1.9955651760101318 0.03480532765388489 0.036580126732587814 0.06773662567138672 0.0995994433760643 0.030768204480409622 0.010090846568346024 0.13699963688850403 0.012448299676179886 0.033955685794353485 0.05068041756749153 0.01629016175866127 0.0410618782043457 0.5760349035263062 0.47323089838027954 0.02213224209845066 0.025184445083141327 0.4457705020904541 0.06684345006942749 0.02872665785253048 0.12042389810085297 0.02570277638733387 0.10407579690217972 0.6164511442184448 0.0061950585804879665 0.02023106813430786 0.0732860416173935 0.004389059264212847 0.025704901665449142 0.17941109836101532 0.07839573919773102 0.010624119080603123 0.024148225784301758 0.062403611838817596 0.07590173184871674 0.008060525171458721 0.061684153974056244 0.010047550313174725 0.012356088496744633 0.008946710266172886 0.026584185659885406 0.014991224743425846 0.0017883735708892345 0.050622522830963135 0.011103790253400803 0.07713025063276291 0.04963349178433418 0.007981706410646439
battery,1.5373324155807495 0.021679453551769257 0.01105074118822813 0.03663528338074684 0.0183697622269392 0.021472828462719917 0.019786756485700607 0.3172856867313385 0.02836618572473526 0.0177641399204731 0.15450234711170197 0.0816710814833641 1.1552256345748901 0.06600455194711685 0.16291376948356628 0.25408804416656494 0.14089645445346832 0.1634160280227661 0.2153976410627365 0.28960391879081726 0.022239064797759056 0.010336469858884811 0.016078444197773933 0.0157601460814476 0.053255949169397354 0.04212227463722229 0.04980164393782616 0.05396660044789314 0.016888020560145378 0.03741978108882904 0.021007517352700233 0.10169898718595505 0.026697471737861633 0.5107018351554871 0.04445710778236389 0.03631060943007469 0.001322362688370049 0.07209337502717972 0.08030229061841965 0.885995090007782 0.00963100977241993 0.040346890687942505 0.013765163719654083 0.03280266374349594 0.015337379649281502 0.015614286996424198 0.04053192213177681 0.03450775146484375 0.009495473466813564
bazooka,1.1794798374176025 0.0016080597415566444 0.5340906977653503 0.04748684540390968 0.031005917116999626 0.01287419255822897 0.3178849220275879 0.4321175515651703 0.028768420219421387 1.0785261392593384 0.06380275636911392 0.02422414720058441 0.37021318078041077 0.10990778356790543 0.11013317108154297 0.17299534380435944 0.0165840033441782 0.026597892865538597 0.13466815650463104 0.6615889072418213 0.08878196775913239 0.03599964827299118 0.05332459881901741 0.05213329941034317 0.013742253184318542 0.05368676781654358 1.040016531944275 0.6880550384521484 0.5310094952583313 0.0062538995407521725 0.01183931715786457 0.057386234402656555 0.04375743493437767 0.10236348956823349 0.02092796564102173 0.008997798897325993 0.05701838433742523 0.3266688287258148 0.04944620653986931 0.3648257255554199 0.23610056936740875 0.05947797745466232 0.011986925266683102 0.03975563868880272 0.06003117561340332 0.04684261605143547 0.0009407158941030502 0.006666081957519054 0.024049025028944016
beachball,0.4097518026828766 0.06355225294828415 0.14576107263565063 0.1463247537612915 0.0993863195180893 0.38035163283348083 0.5356177687644958 0.037901271134614944 0.055275194346904755 0.18122024834156036 1.1503783464431763 0.05112341418862343 0.029435835778713226 1.1344503164291382 0.8772251605987549 0.0028377589769661427 0.009341327473521233 0.018832318484783173 0.05737188830971718 0.02500801533460617 1.0099061727523804 0.07396551221609116 0.007653979118913412 0.040223028510808945 0.16094078123569489 0.003134731436148286 0.049437928944826126 0.045787278562784195 0.06900880485773087 1.839340090751648 0.2681620121002197 0.002566359005868435 0.4700739085674286 0.040304578840732574 0.06204093247652054 0.026988280937075615 0.06016205623745918 0.1824004203081131 0.08711856603622437 0.031669095158576965 0.05400020629167557 0.014823388308286667 0.013647439889609814 0.07414738833904266 0.43095657229423523 0.07693308591842651 0.0011305355001240969 0.02558581344783306 0.015548160299658775
bead,0.4450027644634247 0.9476038813591003 0.1316736936569214 0.16495728492736816 0.023755725473165512 0.441307008266449 0.0022326712496578693 0.01947510614991188 0.48709097504615784 0.05828027427196503 0.5195165276527405 0.18818947672843933 0.05888810381293297 0.27296748757362366 0.42941397428512573 0.07471371442079544 1.2699583768844604 0.04286297783255577 0.04564179852604866 0.07189872860908508 0.01988222636282444 0.34419482946395874 0.195632204413414 0.32184508442878723 0.06750032305717468 0.15173457562923431 0.021662170067429543 0.08835917711257935 0.023158429190516472 0.9067980647087097 0.10770505666732788 0.07615038007497787 0.051739402115345 0.01632510870695114 0.007785554975271225 0.1909404695034027 0.035928502678871155 0.010770385153591633 0.04050447419285774 0.023925703018903732 0.0893070325255394 0.003509845118969679 0.00944164302200079 0.004649494308978319 0.0005834739422425628 0.552486002445221 0.03408413752913475 0.2568666338920593 0.02702065370976925
beaker,1.1635085344314575 0.3022195100784302 0.04046720266342163 0.00810680165886879 0.1482003629207611 0.09434442967176437 0.022150497883558273 0.04026105999946594 0.05174782872200012 0.046588458120822906 0.005838763900101185 0.027859508991241455 0.4880298972129822 0.029112115502357483 0.10128451883792877 0.028728900477290154 0.04623109847307205 0.21990825235843658 2.2575700283050537 0.2442139983177185 0.06886743754148483 0.036768682301044464 0.01691703498363495 0.021827751770615578 0.10377418994903564 0.0016203324776142836 0.036506228148937225 0.04259345307946205 0.034114450216293335 0.12286839634180069 0.01575642265379429 0.02105603739619255 0.027348583564162254 0.03060055524110794 0.14549683034420013 0.06558781117200851 0.022288335487246513 0.5018637776374817 0.040679216384887695 0.010602586902678013 0.02795587293803692 0.008713442832231522 0.0469023659825325 0.06285236030817032 0.023119499906897545 1.08139169216156 0.01295479852706194 0.022825606167316437 0.025814196094870567
bean,0.002703303936868906 2.052823781967163 0.36437463760375977 0.07468373328447342 0.03649356588721275 1.1152759790420532 0.006611786782741547 0.008523507975041866 0.0077933804132044315 0.041859809309244156 0.2889512777328491 0.0074668098241090775 0.02082245983183384 0.004804461728781462 0.15039308369159698 0.009312261827290058 0.6838914155960083 0.0050561148673295975 0.008752111345529556 0.02581384778022766 0.013452108018100262 0.27251872420310974 0.023085715249180794 0.10472042858600616 0.014489211142063141 0.0050172158516943455 0.038260314613580704 0.001764673157595098 0.010651284828782082 0.031180350109934807 0.00969988014549017 0.007481183856725693 0.02261088415980339 0.034732427448034286 0.020651260390877724 0.02115793526172638 0.05098356679081917 0.07388109713792801 0.01733938418328762 0.0030094184912741184 0.01618403010070324 0.0003949156089220196 0.01805511675775051 0.014273892156779766 0.011075333692133427 0.012153645046055317 0.018195267766714096 0.024791663512587547 0.012507261708378792
beanbag,0.20278406143188477 0.6664428114891052 0.022588426247239113 0.9246599674224854 0.7994698882102966 0.018305426463484764 0.04208974167704582 0.008863183669745922 0.24193745851516724 0.08004087954759598 0.3066895604133606 0.05756572633981705 0.16934125125408173 0.4497409462928772 0.9397598505020142 0.08202991634607315 0.35903850197792053 0.1899869292974472 0.12225662916898727 0.026343761011958122 0.0022409523371607065 0.03694362938404083 0.007064368110150099 0.8624832630157471 0.9634368419647217 0.14420214295387268 0.0071425666101276875 0.09789486974477768 0.03879257291555405 0.5209017992019653 0.1388612538576126 0.07705774903297424 0.37449413537979126 0.11367981135845184 0.025814730674028397 0.021604647859930992 0.16579116880893707 0.0816509947180748 0.07656560838222504 0.045167095959186554 0.08942482620477676 0.042929548770189285 0.0272352397441864 0.30218443274497986 0.4804513156414032 0.45851457118988037 0.01529663149267435 0.14361321926116943 0.8613843321800232
